{
  "learning_speed": 0.02,
  "neurons_layers": [
    42,
    100,
    100,
    100,
    5
  ],
  "weights": [
    [
      [
        1.8077196137786276,
        1.193290729761932,
        -0.4613229074300921,
        1.3847971087539064,
        0.9119480640839771,
        0.7023858600857708,
        0.8609405147457093,
        0.8718708659021901,
        0.3718716207647417,
        -0.4386080627862239,
        0.1808677089421808,
        1.249905342409431,
        -1.4183052086009529,
        -0.3658207814549043,
        0.6169251274606029,
        -0.9877068976256134,
        -1.8373696450840393,
        1.6635338574087704,
        -0.6079823499153789,
        -0.4580341982692746,
        -0.3534342828232676,
        0.7776659815397451,
        1.162244550918752,
        0.06831231707847708,
        -1.3223484974584454,
        0.05420543508651953,
        -0.029889912364447022,
        1.0043835465315707,
        0.8438311086270889,
        -1.2689793894670345,
        0.9384886437800537,
        0.8844946812018872,
        0.1468847237023708,
        -0.07973410783697658,
        -1.150038054157714,
        1.6129561167868869,
        0.7028274997113773,
        0.46049902590696,
        -1.1861481536128156,
        -0.2980887133399401,
        -0.09408784104590528,
        -0.7577406877726515
      ],
      [
        1.1023908136298481,
        -0.19455387398634105,
        1.1544818757439053,
        1.0538747216571778,
        -1.2265292114772703,
        1.0016792618997907,
        0.44752980018597543,
        -1.8736797877213605,
        0.49811380868207783,
        -2.140745435436612,
        0.3599388125815468,
        -0.3804839403499834,
        -0.8366672126566759,
        -1.5632182227398834,
        -1.1647606353968645,
        -0.8493121901336655,
        1.7129912477383569,
        -1.5095451110853906,
        0.4132721636397858,
        -1.2530293856487278,
        1.364202308760666,
        0.6110763339128414,
        -1.1410744749847825,
        1.4635073886726482,
        -1.4109459543922522,
        0.8498993027697466,
        0.656010439297816,
        0.7991779560116262,
        1.203611377452431,
        0.42022239185836197,
        -1.1875389839833521,
        -0.40994782204548624,
        -0.4675738324304543,
        -1.008068782229261,
        -1.1555643763028483,
        -1.740032774701337,
        -0.6736128426226379,
        -1.5651687696757854,
        0.16730243682656434,
        1.1231677613508555,
        -0.003743720452526079,
        -0.8708805044892873
      ],
      [
        -1.21151901372671,
        -0.5402288109540108,
        -0.5684494219006031,
        1.172005075948662,
        1.2071721793545072,
        -1.5970948809166907,
        -0.05731457643231218,
        -0.24000417115489395,
        -0.07526544975072776,
        -0.2748099721003896,
        -1.5190893710439206,
        -1.0190831965021727,
        0.5654590084585189,
        1.3223158521235843,
        1.21766904277566,
        -0.2436433314821398,
        -0.8602012138282576,
        -1.0256190042863813,
        -0.20964105701236124,
        1.0433155331714519,
        1.0216710623361407,
        0.6743800502229581,
        0.6598220198911349,
        -0.9501410939961737,
        1.3973736126477438,
        0.2922042580948902,
        -0.46627128916644695,
        -1.1649785276376032,
        0.17484031682328488,
        -0.8150523805563683,
        0.5711090360183972,
        -1.3723215803356243,
        0.7351642326685666,
        -0.5084387022137349,
        1.3515851338570855,
        0.3474327926883278,
        -0.7372921858168309,
        -0.48401513624631315,
        0.916179022274118,
        0.4677386877139086,
        0.9019460923688976,
        -0.43591609384657787
      ],
      [
        -1.908326961168297,
        -0.11355999041418517,
        -1.6257146713083537,
        1.4003737472269668,
        1.274856255893975,
        0.8627864273490973,
        -0.3624673804581404,
        0.10623555729374916,
        1.595867981883773,
        2.028123390956673,
        -0.3298993045228937,
        -1.1995477840821231,
        1.3475816414963502,
        -0.4618120500183871,
        1.248878991264849,
        -1.1641762665027022,
        1.948832320301826,
        1.264114010735837,
        -0.005965674085402952,
        0.5241272346437991,
        -0.7071667291534085,
        -0.5675674433021756,
        0.08529843024250933,
        -0.7533774794946521,
        -0.29272053977169005,
        1.2027311108791614,
        -1.5816138610731072,
        1.0209970859999116,
        1.6072269850649836,
        0.6501772604054028,
        -1.0040603578104876,
        -0.5924593154290853,
        0.9522411150546373,
        -0.4146729847825556,
        -1.0181721930662935,
        -1.5423538621368564,
        -0.7451441902409216,
        -0.22545469057856124,
        0.6566743839411882,
        1.0401386539975663,
        -0.685844713076615,
        0.9757954541851899
      ],
      [
        -0.6471708269737992,
        0.2906842403482108,
        0.4292499468531821,
        0.3136754046616316,
        0.4115111650962532,
        -0.11789661506244482,
        0.125477523036395,
        -1.3143541672175503,
        -0.6785654919111845,
        -0.9326748555201211,
        0.2828774601396924,
        -0.27904120845611996,
        -0.9994078384197017,
        -0.7829868648448736,
        -0.2927407500584015,
        -1.1610206037156847,
        -0.3478159393248281,
        -1.0803422274105474,
        0.12003989595439046,
        -0.9677813023552277,
        0.3546829122154893,
        1.3186845266989498,
        -1.005622496223186,
        -0.5362962508353704,
        -0.8701898732761116,
        -1.068250353769224,
        0.33971814936018485,
        -1.2151040833852185,
        0.2198091321466369,
        -0.7178394923702429,
        0.11666108633564976,
        -1.0773759474692133,
        0.7864973568327167,
        1.08421418941427,
        0.7838779562064666,
        -0.8260541336473289,
        -0.9720270872259081,
        -0.8910310927395998,
        -1.0624793277325981,
        0.41116314573922125,
        -1.3099611205369637,
        -0.17123034932876116
      ],
      [
        1.582673867250392,
        1.1229317016992473,
        -0.32339633266134127,
        0.9385064272624357,
        1.4637466359120623,
        -1.0168519909896514,
        0.6477172450641407,
        0.01435637798055671,
        -0.4321003250515207,
        -1.6604863709507174,
        0.028989444074268064,
        0.8489287130528768,
        -1.2502212414002905,
        -0.568968993461432,
        -1.17507304959111,
        -0.016859416196452367,
        1.1526525901515101,
        0.05024303922960059,
        -0.30825660242842906,
        -1.2859697499788472,
        -1.1319520947708743,
        -1.3294191658049435,
        0.12484824319585644,
        -0.1995693930926398,
        0.018288234472658576,
        0.21747868195658845,
        -0.6987092501194574,
        -0.7671775151629879,
        -1.2486332989586268,
        0.22878732429733786,
        0.1593366828785545,
        0.476256735823558,
        -0.6753592012990224,
        -0.7717101262072584,
        1.6003378497311003,
        -0.010401963934705102,
        1.4145158043293067,
        -1.4217456700943834,
        -0.6797007261133189,
        -1.391676324485851,
        -0.9093792886743796,
        0.9677044591606367
      ],
      [
        -0.6647953213698724,
        0.9408826767291201,
        1.133823559389306,
        0.3363186278632431,
        0.10111183558802894,
        0.17815594235300317,
        0.42156977394994377,
        0.05034981627882289,
        -0.29875448873489663,
        0.2140542755647947,
        -0.88654926566026,
        0.45797044919599195,
        -0.4595078583701563,
        1.0153927363220152,
        -0.20160446272850469,
        0.8472100808665214,
        1.0866838041124407,
        -0.6215908953198529,
        -0.46089446008743634,
        1.136562036138478,
        -0.18367434291303983,
        -0.37690483205053693,
        -1.4657425001436604,
        -0.8040253917450125,
        1.024854955278602,
        1.2948888859459167,
        -1.2071648756950806,
        -0.6418459110706204,
        -0.6879855063842082,
        -1.31574458396298,
        -1.1283368348832876,
        -0.682637367160074,
        -1.3898226491844268,
        -1.2760724033192503,
        -0.8568573194185197,
        -0.49424454751697566,
        1.3524814469726747,
        -0.6348225501152523,
        -1.3956044913392351,
        1.0017235203537584,
        -1.278912219648832,
        1.3109509737385994
      ],
      [
        0.30637232204243164,
        0.35761513573528664,
        -1.4070262802790316,
        -0.695919114198283,
        0.8420914682084423,
        0.9153767795938834,
        1.0638060532891207,
        1.1595829519978325,
        -0.11234612174435289,
        0.6213809352695786,
        1.2227461541638613,
        -0.7937485621301156,
        1.3878315670549801,
        0.930503267916817,
        -0.03465385174577104,
        0.984501541806884,
        -0.8948016848021856,
        -1.5937029507079792,
        -0.449117555280838,
        -0.21855884773803583,
        -1.0938803034708164,
        -0.7838233889559368,
        -0.431472187947479,
        0.14661439558407627,
        -0.7210381813805177,
        -0.11257936764420304,
        0.7902713182683511,
        -0.9907291435664801,
        -0.7214236959240184,
        0.781583858777575,
        0.9536963034666464,
        1.5366368994131818,
        1.475054638738407,
        -0.8658611930248089,
        -0.5757527350388736,
        -0.2892848199444157,
        0.9471664583940086,
        -0.21735256463479094,
        -0.6441975628791169,
        1.3368645228101002,
        -0.6168226463791193,
        -1.61396324672756
      ],
      [
        0.9490635583900703,
        -0.3788864836759142,
        -0.7437628126612454,
        -0.36974858169785957,
        -0.5248405703728672,
        -0.1260977195707124,
        0.6077656879818462,
        1.2216021221073168,
        0.9969917256811761,
        -0.9411534492420148,
        -0.4934144984806183,
        -0.7970080964747349,
        -0.3167187189777266,
        -0.1489045746488413,
        -1.0512615200018056,
        -0.1957941980292346,
        0.39241426182238826,
        1.1061619922298704,
        -1.297421063345371,
        0.9885904868437885,
        0.5218276782201702,
        -0.7651387171236043,
        0.1549035884353205,
        -0.828191963243035,
        0.42333446167147637,
        0.9572913201524214,
        0.941612840185491,
        -1.3127671672081067,
        0.06519756116797139,
        -1.097253557403067,
        -0.09245757634795965,
        0.06121223471221006,
        0.5409668791854134,
        -1.2753539440097332,
        -0.16983555221501026,
        1.6189266498312134,
        -0.7531591190858689,
        -1.2112122651763404,
        -0.859716390946613,
        1.3495523010936226,
        -0.27156788017517036,
        0.9234727229302576
      ],
      [
        1.0424954739256687,
        1.008677972806014,
        1.5219108552385334,
        1.2131747040913947,
        1.4624780139188065,
        2.3974996775306616,
        0.33700454432219384,
        0.5826212341085123,
        -1.0090682350032627,
        2.0204992311477596,
        -1.0378156021485632,
        0.7960878778497665,
        0.0217397990453685,
        -0.8367561846710654,
        1.0685966718057682,
        -1.2049282842054896,
        -1.460045668952898,
        1.0823873278978005,
        0.7286124790293288,
        -0.29705176691150703,
        -0.8697789776066581,
        -1.9227504845663381,
        -0.6883381299654037,
        -0.18437156349501307,
        0.9673430334008497,
        -0.43152597986861246,
        -0.4820308530357981,
        -1.3072497890610855,
        0.02758900727836304,
        -1.655547317572217,
        -1.0789445043112424,
        -0.6682207097422639,
        -0.02063459766997177,
        -1.2772876595997595,
        -1.088085439125139,
        0.7254280073520892,
        -0.4210316864209625,
        1.2074774642563069,
        1.3545270177897364,
        1.355956072195216,
        -0.4357209747886541,
        -0.37605087378005564
      ],
      [
        1.090289170928259,
        0.7916350088378015,
        0.18013319096437247,
        0.3428212843681105,
        -0.32566432705218284,
        1.49995547219168,
        1.352799348853221,
        -1.0945557916363782,
        0.7383815909241835,
        -0.010826548454995534,
        -0.7350495615360756,
        -0.5928874649109991,
        0.6860681017213199,
        -1.047737655338262,
        1.4438896906875378,
        -1.2904168518856614,
        0.04097694901785012,
        0.6112341761468629,
        1.0046315244881134,
        1.1958623491237277,
        -0.6421918033005748,
        -0.04102032308885593,
        0.9766161948700102,
        -0.8824000123122392,
        1.306871937851913,
        -1.1989276980225818,
        0.5374301083947413,
        0.1297636567774815,
        1.4492909685702406,
        -1.4934498867042474,
        0.06589763173369134,
        0.5651822320957952,
        0.7723938959838124,
        -0.1702020258793286,
        1.066901632473055,
        0.7486029291451012,
        -1.4300661794486682,
        1.3762447342680697,
        -0.9115143914450239,
        0.6796516581863931,
        -0.16365212579472546,
        -0.900849124119418
      ],
      [
        -0.47154191773690585,
        0.12539677763606374,
        0.8285533081453799,
        0.7535728595099619,
        -1.58271383140471,
        -1.3399742878555645,
        -1.1163280402361622,
        -0.9543181218598125,
        0.4846419852982811,
        1.3400292980315724,
        0.7514407837640071,
        -1.3854852520049117,
        -1.4664354919940947,
        0.984095463186689,
        -0.5877603352302537,
        -0.19951723265313662,
        0.6165950005055363,
        0.81716286839222,
        0.5532311739676326,
        -0.670986034287919,
        -0.9575670680181207,
        -1.1545585258068403,
        -0.9947385169661549,
        -0.2036989354816855,
        -1.3438408231883354,
        0.34806505099128193,
        -1.1302462414104792,
        1.2800678204231588,
        1.1733082986087369,
        0.02686012914460523,
        0.6168984639262703,
        -0.19789187624875001,
        -1.3676658366048742,
        0.7450368628689509,
        0.08374884290814619,
        -0.8831336213231574,
        -0.2918483117839593,
        -0.10225768531844062,
        0.9581412804717151,
        1.2445239659110343,
        0.45060959209159024,
        1.4380484337306763
      ],
      [
        1.1314193909949148,
        0.5173175890579226,
        0.4178884815344556,
        -1.0957501598382982,
        1.0806540625481778,
        1.0304091189152815,
        -1.1998938235998402,
        -0.32141363054398475,
        -0.9415081966246023,
        -0.5050752253466044,
        -1.2034101343125212,
        0.03268585723621369,
        -0.38212463384702544,
        -1.5150823279688301,
        0.5221670163523288,
        -0.86938337978923,
        -1.5629488354083099,
        0.8848223502995197,
        -0.6991959385157388,
        -1.0410533548298848,
        -1.4997203328224555,
        -1.155936975876141,
        0.30717505868263156,
        -0.0903887105299839,
        0.5655824934218926,
        -1.2041270944925406,
        -1.466802854982979,
        -0.7850621470062599,
        0.6117876855171506,
        -1.0040340871373847,
        -1.0560970387021134,
        0.6496268518622094,
        -0.05009893081202598,
        -1.1245710883662148,
        0.7397870321863851,
        -0.5273153844885531,
        -0.37743567808100614,
        0.8142783324517703,
        1.0739706093852637,
        -0.28705473606796156,
        0.14172457971688415,
        -1.2366951997116489
      ],
      [
        -0.7437136389793761,
        -0.33840022410785314,
        -1.3774344256035058,
        0.7696628677599037,
        -1.0680533659374234,
        -0.26283486233474534,
        0.663101345488381,
        1.0065879665067392,
        0.7304591721953002,
        1.0805282488285333,
        -0.15551264709452142,
        1.2996067707914267,
        -1.1756670361245285,
        -0.5439576594205864,
        1.1426839695974647,
        -1.2738405152630152,
        0.8434766511452335,
        0.5296440672571476,
        0.5073558834192543,
        0.3601274241504296,
        -1.6620590796426729,
        1.3993872584572138,
        0.3519910247136614,
        -0.12769039090813294,
        -0.7408154506588053,
        1.307852243703121,
        -1.7438720413420725,
        0.1978086319246815,
        -0.8412725132600247,
        0.8875820496400993,
        0.11998095641024983,
        0.8548998005074687,
        -0.02928049076343958,
        0.2147313927647927,
        -0.9783145028114789,
        -0.36160941927375284,
        0.47278438857728944,
        -1.2432914088227223,
        -0.3487373539210097,
        -1.3430783792551748,
        -0.6149491230286981,
        -0.8199966406484057
      ],
      [
        -1.582571160668403,
        0.23901636963621586,
        -0.2808087004661632,
        -1.9317146919698476,
        0.5943087729968161,
        -0.3406726378167449,
        1.0641096944346733,
        -1.6187201217477145,
        -0.02497943584515591,
        -2.786800447458663,
        1.4098581899777272,
        -0.5568805902166148,
        1.116861544673517,
        -1.6328750266075858,
        -0.06664715885841481,
        -1.841197798996926,
        1.4125840244447856,
        0.04620813042361501,
        0.9696419595021559,
        -1.1073290866192722,
        -0.5794717030236347,
        1.5515753544741213,
        -0.063792794666232,
        1.3552382248547803,
        -1.423942504274908,
        1.4993255767605147,
        -0.041281276689812026,
        0.4161242975982081,
        1.2164965003470753,
        0.9387161435035587,
        0.9270648053636211,
        1.2980488953993763,
        0.7211892009017983,
        -1.214969136339274,
        -1.210058526001318,
        -0.3662921541722271,
        -1.7466971591720672,
        0.6124961739276047,
        -1.0443111182111493,
        1.2646770878849467,
        -0.29292263461987655,
        0.5612317991722168
      ],
      [
        -0.29402873289486603,
        0.0324024767234438,
        0.7111949870802828,
        1.4212376998681626,
        0.708580640014249,
        0.9839224210648034,
        -1.526061490613159,
        -0.2353340365255066,
        0.18539603353041686,
        -0.9420329369500129,
        -0.6856065768074271,
        0.6795871977225831,
        -1.3958802891275037,
        1.229055640796536,
        -0.08441931533979181,
        -1.088008714055076,
        0.5830379060648945,
        -1.1681096878755792,
        -1.0339093508938921,
        -0.9384170721935482,
        -0.9659847391329073,
        -0.37665646114797946,
        -0.4058311046787939,
        1.6078089913310862,
        0.1497009654254357,
        -1.2209808704350509,
        0.6171658576875109,
        0.4717472312187535,
        -0.5402400909181435,
        1.2787250881909702,
        0.1848349908643762,
        0.43235506508703847,
        1.259454370101452,
        0.8967172895380813,
        -0.6800647688917476,
        0.017647171223421198,
        1.4661112782780303,
        -1.2912725546803816,
        1.0768047103340275,
        0.650345315379348,
        0.15189516660244756,
        -1.3534796436256067
      ],
      [
        -0.8322996141807822,
        1.0052861902469363,
        0.003765143684586058,
        -0.3016917170491499,
        -1.220052489278261,
        0.9088529204938673,
        1.1892489003118702,
        0.9120673438472574,
        -1.18265182283429,
        1.6873346581446202,
        1.0560092596897652,
        -0.42825100520256815,
        0.8352855506483402,
        1.5243254951644494,
        -0.6026726666415548,
        0.8248222133857824,
        0.5289913352956728,
        0.9844750105580649,
        -0.5256354907570479,
        1.4010052284900076,
        1.1298501384574235,
        -0.08929244854396767,
        0.7713928937554325,
        -0.9621275612085795,
        -1.0494561601079893,
        -0.5899078030605776,
        -0.18857505503020183,
        -0.6570078920096379,
        1.3301855747476088,
        0.5619198429541838,
        -0.6660983259262384,
        0.8184324300300131,
        -1.024539026329857,
        0.6988152789843117,
        1.4146160850342357,
        1.1898149151137158,
        1.1070960907263754,
        -0.026785309226790247,
        -0.9349048177920484,
        0.7207529828080318,
        -1.158907755033985,
        0.5712937129238469
      ],
      [
        -0.04844145794917206,
        -1.4848485570635437,
        0.7788321888855951,
        -0.533972622526866,
        1.2378280703345492,
        -0.16524597051943987,
        -1.2830762737631403,
        -0.21690572063937275,
        -0.32393350787738995,
        -1.2072756462159009,
        0.3275137899292355,
        -0.18228037861868018,
        0.9175654416908192,
        0.8432793920766393,
        -1.3173415569515383,
        0.4749988008505493,
        0.49454949537380355,
        0.07194886024101732,
        -1.194401985079563,
        -0.5673762497084667,
        0.9822023515233312,
        -0.2852654192294723,
        1.3614770436921382,
        -0.22982959598545516,
        0.7432934865763425,
        -0.39675900714345325,
        0.4104456351986693,
        1.2063809249725226,
        0.34784750119759306,
        0.39928248363482927,
        -0.9774820136041551,
        -1.0324917042794377,
        -0.5109944690975761,
        -0.40743019345398646,
        -0.9908639654750011,
        0.7374634165060197,
        0.3718575780339411,
        0.2147686316653082,
        0.6813104548295057,
        0.6094927945814409,
        0.31426351371620437,
        -0.7495417671017527
      ],
      [
        -1.2506015710554361,
        0.629174419657066,
        -1.8277659673133078,
        -0.9067915740744947,
        -0.8711178529128315,
        -1.2862773034428856,
        -0.6216055797991755,
        0.2266378692457571,
        0.9662676709407952,
        -1.7763523157723347,
        0.4482733981946312,
        -0.6559293461441651,
        0.14101531948688306,
        -0.8867555746253956,
        0.0963556452318341,
        0.1527512631380276,
        1.7927605676185727,
        0.12652767542155424,
        -0.9496810788467901,
        0.30697244242866983,
        -0.21281331412599874,
        0.2376085687664147,
        0.68641115336486,
        0.4797306613378847,
        0.776706418532634,
        0.10853536592795404,
        0.9910325127956506,
        0.37960231539582345,
        1.2770910801014947,
        0.8354267934341146,
        -0.42575386939609916,
        1.475952617074458,
        1.5932288480663297,
        -1.0825121066017365,
        0.18588606412842942,
        -1.2150559480645957,
        -1.4472871495712811,
        1.2900595659954586,
        -0.3519201163414583,
        0.4508837635293084,
        -1.2514363430326454,
        -0.10063153415374153
      ],
      [
        0.9679224309811854,
        0.6487234397326153,
        1.0263687308269578,
        -0.9768176272070306,
        -0.9124046589051105,
        0.17002717304429413,
        -0.11725367206184767,
        -1.0465019429712223,
        -0.8992267271571618,
        -2.52812437723592,
        -0.6963443703475314,
        -1.6022984067904336,
        -0.8587490198311148,
        0.8310257920872677,
        0.5299846918214695,
        -1.7795335167872146,
        -0.683969934140181,
        -0.18247713018604475,
        -0.06746754916211564,
        0.8733695388320962,
        0.16539085392587274,
        1.7391141377825587,
        -0.7363561269862088,
        1.7336373213061107,
        -0.6063938092222039,
        0.10608311930978422,
        -0.91157252056834,
        0.713583321821222,
        0.18366886327540283,
        1.1468680565765221,
        0.0313570673945536,
        0.28625667798709725,
        1.5747538617100276,
        -0.07072325250294766,
        0.6738381856757552,
        -0.3391368160349238,
        1.2021214337498267,
        -1.2056530779373245,
        -1.279163614059572,
        -0.3477846856565447,
        0.31757698392126665,
        -1.9748256254710856
      ],
      [
        -1.0609482272061115,
        1.2737978722569696,
        -0.26574604282163283,
        0.8494206658119082,
        0.7199031718488859,
        -0.12594792786531098,
        0.12989824553547027,
        0.24086229218576205,
        0.11406371256261591,
        -0.20067262213661297,
        0.9359210149973792,
        -1.367198509778718,
        0.8837842671645917,
        -0.7800759443074726,
        -0.5510899491907757,
        0.3488693294069851,
        1.1550882182510258,
        0.554105312575848,
        0.5310783347597701,
        -1.2171192834629487,
        1.1478086379274715,
        -0.6772073637936852,
        1.132557919371878,
        1.2727361647187376,
        -0.8616684969612977,
        -1.3717266538869952,
        -0.5819684550894444,
        -0.9039433264087121,
        0.5259747659860593,
        -1.4462631205272733,
        -0.09271465420480426,
        0.5299844084546435,
        -0.8049052008275995,
        -0.5696615716484238,
        0.8885285105468018,
        -0.10957350666505732,
        0.6560158346570397,
        -0.24571782080805382,
        1.3567484316839282,
        0.5695255843581444,
        0.47504528556346604,
        -1.4633438687623872
      ],
      [
        0.893329139748418,
        -1.3776537707602452,
        1.5338320069815348,
        1.6805408166442433,
        0.7304675018824973,
        2.2418648679960986,
        -0.6816499281088817,
        -0.5765948464593003,
        0.42834801296669767,
        2.4001979234964668,
        -0.8619064225830825,
        -0.3415372001805665,
        -0.7022813476351843,
        -1.4245248616718613,
        -0.4411735469927752,
        -1.65689874955672,
        1.7560750330816954,
        -1.1894403133304956,
        -0.4661379436146435,
        0.17849228633136846,
        -0.5130752346577587,
        -1.1162788381383044,
        1.2742738311543105,
        -0.3498795304766996,
        -0.7235676152501778,
        1.3423665905730129,
        -1.2912674316179422,
        -1.9124237109763242,
        -0.4458509105267778,
        -1.574817024454556,
        -1.2523717464709678,
        0.9007384356376398,
        -1.0438379747295154,
        0.7593903975214752,
        -0.7276500915405557,
        -0.7095258317209132,
        -0.21133224396683864,
        0.3439940508979127,
        1.0891843759708435,
        -1.1487797614968307,
        1.1124215325764106,
        -1.423353705865114
      ],
      [
        -0.7199525720586587,
        0.9218889466443595,
        -0.7145303391435526,
        -1.1477573614768528,
        -0.6963616371576031,
        -0.009358975863594979,
        -1.1588905878691327,
        0.6455600060488611,
        1.7651745740042772,
        1.7600070133841552,
        -0.5012930295672247,
        1.0052539887790646,
        0.00048410516343225143,
        -0.3919179967725895,
        0.7901742527457667,
        -1.3908143223297806,
        0.6619152353826459,
        1.249009725648592,
        0.8012924668697778,
        -0.9679854897866154,
        0.13799842474751728,
        -0.9873787175997616,
        -0.3397938808974988,
        0.8502247637445015,
        0.45111921630064555,
        0.30248833072206127,
        0.6445095313691949,
        -1.3550587285433904,
        -0.09691661345390581,
        -1.1440965026832313,
        -0.18540094930685797,
        1.260387023732373,
        0.15255024349931234,
        -0.22572992417589008,
        -0.5261331930039862,
        0.21115795115262337,
        -0.007892350216595177,
        -0.17905790089095244,
        -0.0927542231534899,
        -0.2848586165033204,
        -0.9873935785988799,
        1.1213713211036684
      ],
      [
        1.0960417953047203,
        0.5088949188172892,
        -1.5040116302499993,
        1.0503647804039675,
        -0.40512503091847574,
        0.10327747781216848,
        0.18767976806763687,
        1.0951063150416984,
        -0.9171277621653818,
        2.901120526406548,
        -0.46624019506141745,
        -0.5153234829708796,
        -1.0742236996075025,
        -0.7430127582560951,
        -1.0673148029930057,
        1.6481479468879756,
        0.5418320804264896,
        -0.6135954036067879,
        -1.1918245499746019,
        -1.0111841372895314,
        1.2407585188011734,
        -1.7637314600954659,
        -0.15085251968835792,
        -1.0859271475338357,
        1.150362878342205,
        -1.4995851894358787,
        -1.3334074901841824,
        1.3401761149907236,
        0.5849129293626792,
        -1.4814969671087206,
        1.4525237661849582,
        -1.9604475314293737,
        0.30345580065482797,
        0.4667956054247452,
        0.43128496245539605,
        1.4320565842970243,
        -0.7506317975019055,
        -0.38088929302940955,
        0.3439318460972923,
        -0.4546481857149457,
        0.5888506158518931,
        -0.5739018977872011
      ],
      [
        -0.8534881563171861,
        -0.7095009053468946,
        0.08476622328004646,
        -0.4415158350759878,
        0.500726869872099,
        -0.13280514275974556,
        -0.6406401086762383,
        -0.4840992536051957,
        0.11036216383155323,
        0.7755022244745431,
        -1.314871444851572,
        1.1848654013165276,
        -1.491128873410117,
        1.4502355813963625,
        -0.3748674638816292,
        -1.0962190691384677,
        0.15904100295717258,
        0.07430013261174633,
        -0.18665459444056773,
        0.7698830161508393,
        1.2438907129461598,
        1.1806176862070858,
        0.08553184612682056,
        0.5208549647115118,
        0.16925472005713751,
        -1.2663881062784812,
        0.13705245975630617,
        0.6828354340084098,
        0.21715071777661063,
        0.4494855298009065,
        -0.44564597407152645,
        0.7703166056488946,
        0.10145787519715788,
        0.4175383313849148,
        -0.033609864640878076,
        -0.7437046773707358,
        0.4712084702831325,
        1.49353108750843,
        -0.3168505197898863,
        0.49880245789058697,
        -1.0666033285654033,
        0.6415960609062504
      ],
      [
        0.8256736438287542,
        -1.0630605530115287,
        1.2313049909080769,
        -0.12323066557472195,
        -0.9509472816964286,
        1.4748247095331084,
        0.7023276873980842,
        0.3651026140263573,
        0.041608346246977054,
        -0.5600581145942716,
        -0.3362478119595914,
        1.1953494710047392,
        1.4490800255072367,
        1.4977434935718181,
        0.7278228719774703,
        0.23376430281773816,
        0.6802393649553242,
        -0.5492042574081786,
        1.2315144677883345,
        -1.4538120721024115,
        -0.6953886197355174,
        0.5531485526793073,
        0.2872696774085078,
        -0.08172931197319236,
        1.065083914392767,
        0.7265281405852625,
        1.0631077909914035,
        0.9383667673149102,
        -0.6479448880797359,
        0.3046170374259708,
        -0.8299630537763154,
        -0.3757263249224381,
        1.436113636314668,
        -1.1153263530485376,
        1.0605687270331596,
        -0.20961194270190095,
        1.078671027556875,
        0.496861818539974,
        0.23510868030508178,
        -1.0138005420466485,
        -0.04484990579388299,
        -0.9168023829312353
      ],
      [
        0.11603734374017605,
        0.6532403174400006,
        -1.1320780812079854,
        0.6785839666340485,
        -1.4892694400229154,
        1.2020500143356225,
        -1.228207577538051,
        -0.7492137396927833,
        -0.6719287546358175,
        -1.2901332177837774,
        0.7484204628601359,
        1.0041016054229717,
        -0.34377365825035566,
        0.7897936234661458,
        -0.0902627963009574,
        0.34764878160380736,
        1.184911079142609,
        -1.2475486329913483,
        -1.1489080852267846,
        0.8126533333269934,
        -0.4322101859712865,
        -0.7591874815319122,
        1.6768978655128481,
        0.38180670162283614,
        0.020432263226091568,
        0.31193693753492585,
        -0.29698556003007964,
        0.4561215862491624,
        0.1971189988675624,
        0.23312478717330823,
        0.43804553226287885,
        0.8982469874840107,
        0.7645226944210094,
        -1.2275036196430265,
        0.13845128076128763,
        1.734098900130171,
        0.22843998444679173,
        -0.7786301633232632,
        1.1108735009159851,
        -0.026026502874907313,
        0.1138946588283858,
        -1.1612415700272172
      ],
      [
        -0.9190472161110745,
        0.7474903719147803,
        -0.886415456338431,
        -0.8597263809424235,
        -0.9881877131736263,
        1.583716607098383,
        0.202753719131202,
        1.2127606878830899,
        -1.2677581171744527,
        0.2302390714307739,
        0.1287987733867577,
        -0.7009565110912009,
        -1.402007239986652,
        -0.5680311484189751,
        -0.5869454784247746,
        -0.4845251460826269,
        -0.6730074171581552,
        -0.7558521628807479,
        0.8474817920856933,
        0.35299427415740486,
        -0.7637064560458158,
        -1.0297586864468808,
        1.0936155643141734,
        0.7230732897685743,
        -1.3456148610972902,
        -1.4840372783282978,
        0.15507377623183824,
        -1.8444487081455845,
        1.1316783297962947,
        -1.5194316492206525,
        -0.08767573565658222,
        1.0472114001341124,
        1.3059082486936457,
        0.09252088188304021,
        -1.1167312370610392,
        -0.777694554230921,
        1.2602145188544278,
        0.5880093543550889,
        1.3674325543161119,
        0.9255513704736352,
        -0.2845989888818817,
        0.9733614414157886
      ],
      [
        0.7409510504155695,
        -0.8945728867295346,
        0.4333074949428733,
        -0.5383247187063295,
        0.547312397969835,
        1.344392117521504,
        -1.0586380398091906,
        -0.02161431194045276,
        -0.8131331775509941,
        1.7399603101314929,
        1.047815828501842,
        -1.3312783519799913,
        -0.1088275543770374,
        1.1447538129215027,
        -1.1103042731813602,
        0.9553601827576645,
        0.2380303710078833,
        -0.3305613275414786,
        0.2318870751597028,
        -0.38711123251736335,
        0.08755769210405888,
        -0.22147789625380926,
        -1.1777090771288032,
        -0.4684107145713101,
        1.0631858814515198,
        -0.17696349063889724,
        1.0865978204697984,
        0.821221904507526,
        -1.1987135953064076,
        1.0585260438308208,
        0.20632814454009996,
        -0.3474077675213715,
        0.9104701519697079,
        0.24373501604071146,
        -1.2979762738258545,
        0.8903976751811773,
        -1.1378343776256141,
        0.30960841274386985,
        -0.08796269726289307,
        -0.2749353344199322,
        -1.3614479822217327,
        -1.2754040999585368
      ],
      [
        -1.4423751786095023,
        -0.001988387686940171,
        1.0261839329640345,
        0.002547152750259712,
        0.14317794761577926,
        0.1153633387360894,
        1.2122102382682967,
        0.6590290997031355,
        1.2605459739986828,
        -0.10174615207212569,
        -0.2842069402289806,
        0.08224363456069052,
        -0.36280445218645413,
        -1.3108707823634216,
        -0.3123723781150304,
        -1.0185640648881047,
        -0.29447007921709517,
        0.5324937709316465,
        1.4113845893726817,
        -0.5110604557144238,
        -0.4182865368755058,
        1.643588012441554,
        -0.580158225193916,
        0.26730859230627885,
        0.36817486930653864,
        0.38686705354981554,
        0.4941631696904707,
        1.0972536422266814,
        -1.220043947495136,
        0.6331323316618849,
        -1.0559993335941678,
        0.8916525231329753,
        1.3216837565019206,
        0.4400183930562808,
        -0.26106501861854847,
        1.3688397413366167,
        0.8514946160627433,
        1.4880486428838693,
        -0.06729853634260502,
        0.8782471830395113,
        1.0621544802678242,
        -1.0444195016125102
      ],
      [
        -1.3019446824771181,
        -0.7758296440346265,
        0.27085125887650396,
        1.567107358694077,
        1.6216369415683487,
        1.7955538189739009,
        0.2692213558166823,
        -0.7551957396341001,
        0.23119552242316163,
        -0.38320669777483357,
        -0.875155978830346,
        -1.2010015957933982,
        1.4755400528572398,
        -0.11045984500984964,
        -1.113837996479141,
        0.6237692170060389,
        -0.8983973799724,
        0.1499285715534052,
        -0.13368582160707143,
        -1.4718260304739428,
        0.6073969249354932,
        0.18701006039622475,
        -1.2453277836428482,
        -1.262887216226854,
        0.3303937073594602,
        0.4650273101944653,
        0.9144043854004492,
        0.035379892669813666,
        -0.04709025765848055,
        -1.2913543384534278,
        0.5150652150317613,
        0.39188947740005214,
        0.4273971843708959,
        0.6516157272978331,
        -0.1793257513662838,
        -0.6124751113942223,
        -0.9996625483187738,
        -0.29326701716190723,
        -0.27778640865421045,
        -0.909279992420848,
        0.1788306308430169,
        0.16673911227561367
      ],
      [
        0.9085671076981765,
        1.2078820747306231,
        1.0354655966936834,
        -1.4627897233166542,
        0.7185773550462056,
        -1.11782732687684,
        0.4913028643843353,
        0.7533183036662868,
        -0.21116132262515377,
        -0.835006149337058,
        -0.45900340819296087,
        0.38747092495770097,
        -0.833436353014661,
        0.5091468259348949,
        -0.6889955708448336,
        -1.3964880598015377,
        0.7943889937682567,
        -1.3044861541446617,
        0.3039523199470456,
        0.15267454272980865,
        1.3639888608462742,
        0.8483774274113917,
        0.5650967666501412,
        0.9307727770694658,
        0.32504157335808265,
        0.6429787858801497,
        -0.520791999276903,
        0.2343061670716188,
        -0.793151428553339,
        0.710834081619161,
        1.0742578327470507,
        1.0024790933209882,
        -1.1406968665709825,
        -0.36536369101796023,
        0.8765214226497444,
        -1.454252894578334,
        1.459256547654706,
        1.3649530197294502,
        1.1925840100787233,
        1.3381104968488287,
        1.3997839353482546,
        -1.3069949539552776
      ],
      [
        0.895576697858419,
        -1.3865612307156274,
        -0.5070640401153924,
        0.8556769632452209,
        1.2079787152251722,
        1.3942645971460608,
        -0.614063467209964,
        1.577340443618484,
        0.9800306120256272,
        1.368068342812581,
        -1.3820656508508917,
        -0.39018595559537006,
        0.30223354234347233,
        0.9189079549006827,
        -0.04867351662561615,
        1.7351430000228345,
        0.8585123157277771,
        0.006185434621463327,
        0.11712292906821106,
        1.5747176212715384,
        -0.8948669005657641,
        -1.1388059585645562,
        -1.1977135964277914,
        0.07590822956186181,
        1.5439202215316907,
        -0.6792781632767341,
        1.1727799147541198,
        0.4134461172334444,
        -0.7345229208936723,
        0.9224866599441273,
        -1.1195082823127076,
        -0.7800313057306485,
        0.8231119988980637,
        0.37939617894482114,
        -1.2141270416878163,
        -0.7277557528570862,
        0.1596581670970043,
        1.356262697786048,
        0.45030558530724235,
        1.2074240508742744,
        -0.18573005496804332,
        1.8708778173566047
      ],
      [
        -0.6260777179525177,
        -1.106982486799271,
        1.519655845827907,
        -1.4225270321606658,
        -0.9625127022954556,
        0.03720092848779992,
        0.7570991106633477,
        -0.026446344773745186,
        -1.1778559007824028,
        -0.09701220939967695,
        -0.8104200403956991,
        -0.4378005376241008,
        0.024971390008063164,
        1.585974318130362,
        0.24683228223568218,
        1.1299129199055375,
        -2.024397470799492,
        -1.2590402270723018,
        0.4083609406479165,
        1.5749405729760924,
        0.8862033657425507,
        -1.1178175999606375,
        0.42391780881932134,
        -0.29634323262128315,
        0.22954125102985334,
        1.4259185062916495,
        0.1829146814323431,
        1.6671680536357196,
        1.0271898010518992,
        0.7015194489814365,
        -1.0544072836106344,
        -0.3010815707863253,
        -1.5325517643532973,
        -0.546913679462233,
        1.3956910698404401,
        0.5802411205645707,
        1.6067084038257045,
        1.0688656188074512,
        0.5937757430164111,
        1.1254558955857523,
        -0.8469803325361943,
        0.4934071636865529
      ],
      [
        1.9251921736033315,
        1.2912131503192363,
        1.3957181510103045,
        0.9520718917931857,
        -0.6994360936427321,
        -0.6056240525547738,
        0.8028640006726268,
        0.6658861904379204,
        0.14597026174262745,
        -0.3022167650220599,
        -0.545590755119444,
        0.5679564773523917,
        -0.2744327015579415,
        0.1980909278711668,
        -0.9402237427725042,
        -0.25768872750923627,
        -0.26957530221053594,
        -0.33839919990849526,
        0.16535415958039393,
        1.9393537122657756,
        -0.747226595215848,
        1.3479585758383241,
        -0.08611530947662828,
        0.21410712650553554,
        -0.540777940466023,
        0.25369906455075436,
        0.7953343745730618,
        1.8108421226286568,
        0.7053205176781411,
        -0.9993250867781859,
        0.5873719129668199,
        0.04970575029389423,
        -1.6599662165583642,
        0.18158849500587065,
        0.047854122918340465,
        -0.7316807791419949,
        1.3005414209822017,
        0.9631568667416814,
        -1.0777217753690185,
        -0.4791609127087275,
        -0.38029564020242396,
        -0.529823888389819
      ],
      [
        1.1199817393145728,
        -0.05812992477529605,
        -1.0091860752853288,
        0.06818259268109017,
        0.5148980359803507,
        -0.8398138097544018,
        -0.918808491967861,
        0.01186167463380925,
        0.7963757105473493,
        -0.8678245812955088,
        -1.082241887873492,
        -0.3742877170433282,
        -0.9876593366089069,
        0.9371859282945836,
        -1.34915938891337,
        -1.2565020582828073,
        -0.25974339605076796,
        1.4722040399176255,
        0.02972201757550851,
        -0.40592258036501183,
        0.5337769355574239,
        0.7586722592092374,
        -0.4995740060055685,
        -1.4764860307217782,
        0.014140752096420761,
        0.13024914497465073,
        -0.15536599914007493,
        -0.8332502947282581,
        0.7120124392648531,
        -0.3865180595153681,
        1.5305256097881985,
        0.09416836791943707,
        -0.2773510328244665,
        0.6949045595042416,
        -0.25486125591539455,
        0.8642870944362019,
        -1.2435750962643255,
        0.5384322818256421,
        -0.5179634771600188,
        1.1235832843007447,
        1.4039692812717668,
        1.519731620138138
      ],
      [
        -0.30910084353209766,
        0.5977225757666352,
        -1.280040078590584,
        -0.1858377500413029,
        0.6546777001626981,
        0.6591600632106926,
        -1.1520248489818978,
        -0.3119117002642344,
        -0.8559379918432943,
        0.9217306516649045,
        -0.11132033928891817,
        -0.5267291406719085,
        0.6702818771512307,
        1.0396140084674057,
        0.35680381601593014,
        0.4940389163206703,
        0.2674916757366819,
        0.8382010906171717,
        -0.9012782437946762,
        -0.8681404833371833,
        0.5236754804376706,
        -1.1038634347971996,
        0.41158613645616404,
        -0.8120781986705552,
        -0.18908016910934194,
        0.7007628146751113,
        0.7740395696566089,
        -0.8760672819266682,
        -1.12636768330328,
        0.2803979412193159,
        1.3378616462345194,
        0.15982525288140426,
        0.9757385677797212,
        -0.8295084255515789,
        0.9983228318739674,
        0.8512352821640226,
        -0.9244963753547106,
        -0.49750707561525037,
        0.9049835701399734,
        1.096376819572322,
        -0.7333611743173004,
        1.549586992033659
      ],
      [
        -0.4694031185159681,
        -0.8105968616836595,
        -0.8876024957722178,
        0.6803241406360752,
        0.29758713360326305,
        0.2486524178165,
        0.5878677533549141,
        0.7276423099460733,
        1.0843041983710424,
        -0.4394363028737241,
        -0.22595157618974254,
        -1.7520731565182528,
        0.06497852092535177,
        0.4071583793313903,
        -0.17693711252665223,
        -1.5322622524761766,
        -1.3181848871935127,
        -1.371659102605947,
        -1.0994071772348921,
        -0.9691304854883058,
        -0.21939452200317952,
        -0.1906838111323731,
        1.471158661138616,
        1.1601243213380459,
        0.47835754520236035,
        0.41188436152573044,
        -1.262279918729224,
        -1.0132097404315914,
        1.1696863435089313,
        -1.0803672336034364,
        -0.5387040678837199,
        1.1523833654974185,
        0.1964493616074084,
        1.2161838355289667,
        -0.12684181340195827,
        -0.6665979112037155,
        -0.1346000389929971,
        1.22644485410698,
        1.5049114367314502,
        -0.24899496417995812,
        -0.6031094120564088,
        -1.3370916754492295
      ],
      [
        0.28852586009426595,
        0.67221546404361,
        -1.5799383084884262,
        -0.836928891925275,
        -1.2359898771968574,
        0.531324727244734,
        -0.024904207891470288,
        -0.0954373800180216,
        0.5274349603014806,
        1.3097851983251154,
        -1.666925800190642,
        -1.1432564785271013,
        1.0366566444727288,
        1.0301178133592186,
        -0.013363403641251282,
        1.0172778691888982,
        -0.25564570991075647,
        0.692640581428475,
        0.14683127291757195,
        -1.1816935788905567,
        0.32063815112984007,
        -0.9738490688035946,
        0.4622336272442109,
        0.16619255386801507,
        0.6050087408203737,
        1.045125846366698,
        0.23461584486310538,
        -0.005302808261168694,
        0.9078210391746262,
        -0.6410515491736264,
        0.349714136950055,
        -0.9153394241725503,
        -0.025734490258423393,
        -0.6706184435561002,
        0.4684794339282013,
        1.5624234417934857,
        -0.6245769724272238,
        0.6224663902014247,
        -1.2772432365616018,
        1.5673837355316043,
        1.5372496040282213,
        0.6596822300243641
      ],
      [
        0.5934702587548131,
        -0.6949995100777774,
        -0.24626857368119293,
        -0.2647361199788533,
        -0.804467881409959,
        -0.19767263930567933,
        -0.6266002850142229,
        -0.9975040513256697,
        1.1014295831335532,
        0.7280109413575115,
        0.9158970836542447,
        -0.9251819101516179,
        -0.7492430535449613,
        -0.49529667891056117,
        -0.2736404715002941,
        1.2212457794564038,
        -0.9546605647371117,
        0.6071447943366153,
        -1.0201302058841208,
        0.27094209477490655,
        -1.4904695249207918,
        -1.054118315388687,
        -0.7630843502179154,
        -0.8233472535085866,
        1.3337720035214644,
        -0.14581609383902328,
        -0.30745903465394636,
        0.6569872335415046,
        -0.13035503370650445,
        0.09847293478449735,
        0.3800050083358786,
        1.3032862964032308,
        -1.0465478603416587,
        1.0068842333829084,
        0.7010405696145284,
        -0.6653552463066192,
        -1.2670041766128104,
        0.4223958936064491,
        -1.3683179851983978,
        0.9676841946303417,
        0.609445817577909,
        -0.6990867061816433
      ],
      [
        -0.41089829295115093,
        -0.9306109999185121,
        0.8564735599651973,
        1.0193849484807096,
        -1.237077747950783,
        -1.3798334392061016,
        -0.2738292696291269,
        0.6308689067405104,
        -1.7971448866571678,
        1.1018037572042363,
        -0.6068460141906676,
        -0.026928333026111737,
        0.15583482674063176,
        0.3330832256989598,
        -0.46158406142429065,
        0.481554325771801,
        1.1896264310007214,
        1.2694207832394373,
        0.6315919468236737,
        0.630257899279672,
        0.6942427066487695,
        0.1576118746866217,
        -0.1280205950270781,
        0.47963993557324774,
        0.7476082456882345,
        -0.2465581817744373,
        -0.6209179240617674,
        -0.8348291624857858,
        0.9791880649152727,
        -0.21969202530320409,
        1.171808956006719,
        -1.0001150879371459,
        1.1925692674694697,
        0.9051720075031364,
        -0.0008963589233426065,
        0.7212805390403523,
        1.1722573964161216,
        -0.7136103082332159,
        -1.5189716037149623,
        -0.24690977249144228,
        0.26292017664689105,
        0.40942734096788513
      ],
      [
        -0.5071524620633423,
        -0.31858257179668903,
        1.7149664971865886,
        -0.6010132656866474,
        0.6335800754856792,
        -1.0674627763054598,
        0.9162649253425557,
        -1.2064791225856426,
        -0.1895515644410471,
        -1.4486735662181607,
        -0.1678474538039636,
        1.5309163306239832,
        0.9412249446197029,
        1.466067579791547,
        0.06574505956951783,
        0.9793891477594306,
        0.5170974968041689,
        1.0413356980464832,
        0.7289763424546736,
        1.0702468679047485,
        0.5317591002060578,
        -0.9436416407800924,
        -1.1767075877004787,
        -0.1738130520187908,
        0.7125557691518309,
        0.8998751997249976,
        -0.4289131685798823,
        0.3273688902668171,
        -1.288704813089757,
        0.5517483169176296,
        -1.294944328779375,
        1.0951149663663255,
        0.4892757817546292,
        0.4469809295643955,
        -0.41033893329149496,
        1.6200329306945036,
        1.3768425727295375,
        0.7023356230606819,
        -0.723169110714609,
        -0.020757131549137803,
        -1.366946881105572,
        -0.739854470471971
      ],
      [
        -0.9272669940402821,
        -0.4263601956551621,
        -0.9193127875096145,
        0.7184624935840386,
        0.04435893615332715,
        -0.08764935381664488,
        1.7591850060492722,
        -0.936463845757756,
        1.7274202374770131,
        -0.796339598842962,
        -0.15122026591229776,
        1.1886606887197753,
        -0.686581822969779,
        -0.6235117566054454,
        0.6127865299478339,
        -1.0356356941861857,
        1.7520540314625714,
        1.2931046936854929,
        -0.5082222498816944,
        -0.577131889890699,
        0.3766687939683257,
        -0.23631831937331577,
        1.1161820298654235,
        -1.4802642454104815,
        -0.31221720180233964,
        -0.2280196538308979,
        -0.41124550638761953,
        0.4154570718538475,
        -0.6121394626511585,
        1.4570276926246304,
        0.11223965391630694,
        -1.1777859905605537,
        -0.592397552353161,
        0.6923294054957753,
        0.8208256112304971,
        -0.019204055740517992,
        -0.9585446058117731,
        -0.35555317274573217,
        -1.2354182281996977,
        0.9052131273135174,
        -1.3312497973960087,
        -0.4060362760049373
      ],
      [
        -1.873966647265206,
        1.3704185860706,
        -1.9527673499032723,
        1.069892494783921,
        -1.7103488745699167,
        0.5002088319660073,
        -0.6585193710184247,
        -1.033972262778037,
        0.40122146089723315,
        1.342005275328309,
        -0.7297341607218587,
        -0.4226919170043221,
        -0.03481681287601524,
        -0.3513332083768061,
        1.385417373673836,
        -0.901476108549896,
        0.48596590768583686,
        0.009672463939423732,
        -1.047365734212511,
        -0.06327963835801671,
        1.0141397292765328,
        -0.9439173292565322,
        1.4461034930898213,
        1.1165790115457042,
        -0.20049275112404322,
        0.5589268093112114,
        -0.520360100070332,
        0.6559284360824535,
        0.8791951625889124,
        -1.4187317451684844,
        0.10891781088665031,
        -0.5992067599139178,
        1.5083480775740463,
        -0.6936412090470735,
        -1.1099343687029222,
        -1.2865262047199884,
        0.5666667302333852,
        0.13465983437913168,
        1.4709711166773995,
        -1.318002604366687,
        0.16622120436848234,
        0.45722962099042036
      ],
      [
        0.5505706057470121,
        -0.6924965385241262,
        0.8844558315332091,
        0.2827736025762555,
        1.6882701913288807,
        1.0578736041715835,
        -0.26047596154996766,
        1.089623619726275,
        0.08359646326651422,
        -0.2280800279603156,
        1.230221705665408,
        1.8269525099426704,
        -0.12359969345639356,
        0.9183827650265916,
        -1.3540839093002963,
        1.4386347861787923,
        0.32067635958573215,
        -0.14777758169260602,
        -0.9411355847924057,
        2.103300563570672,
        -0.5404833991356247,
        1.1598376144125486,
        -0.42540408431902044,
        0.26110445197663035,
        -0.9122754034422441,
        1.3761175141828585,
        -0.5130801835132364,
        0.9835384468654063,
        0.894056253458888,
        -0.9676365055894919,
        -0.9466225537074506,
        0.12112708619941727,
        -0.3309973773425773,
        0.207304634919702,
        0.922142908312098,
        0.5506510875196998,
        -0.5401736366349181,
        1.5648768082663116,
        0.648090020006496,
        0.33108377769848846,
        0.5056712745197387,
        1.3618525064236955
      ],
      [
        0.9178118674487773,
        0.6569493411368271,
        -0.8994436155369684,
        -0.45010529128326665,
        0.023517874542585648,
        -0.3255989836684678,
        1.074184445344146,
        0.18460243267683185,
        0.9420234266772658,
        -1.2194911371736894,
        0.5747676192085953,
        -1.7015392200287085,
        -0.2392642087945357,
        -0.35374577868665114,
        -0.9188345262769335,
        -1.5399248955125806,
        1.0772735141574838,
        -0.21560231911283154,
        0.6650272735277765,
        -1.9223555193728237,
        -1.004201476662081,
        -0.00989292161642539,
        -0.6586698792523792,
        -0.4833606570601415,
        0.6072759313559744,
        0.22673358664366813,
        0.898317726401409,
        -1.6743970865206725,
        -0.03372669017148802,
        1.3073760664154581,
        -0.15204544321435418,
        -0.37274078778294717,
        -0.09233629292890201,
        0.5248329821938756,
        -1.0336363402431223,
        -1.2485457171852266,
        -0.020432830029000624,
        -0.8199288198126353,
        -1.4677305890488552,
        1.0705793585515415,
        -0.2693857947928413,
        -0.9323735686773907
      ],
      [
        -0.9848878241073185,
        0.9561019545246576,
        -0.01512091330410308,
        -1.0156129828739662,
        0.4491512642640078,
        -0.6587931983023776,
        -1.270213339098546,
        -0.35461043069092313,
        0.3706741059090571,
        -0.23089379093753906,
        0.93283725782602,
        1.3459686788235754,
        -0.7438391830649991,
        -0.995307327328261,
        -0.32522738400003615,
        -0.48865494814053173,
        -0.8556499296518605,
        -1.2346314196314607,
        -1.292674519885723,
        -1.1637816108742105,
        -1.243316866875243,
        0.7895122375578558,
        1.0411551301931288,
        1.1608993334514526,
        1.448135897951973,
        -1.4504963672328648,
        0.6140679935804795,
        1.4345503582388173,
        1.2282862274746795,
        -0.5183836884748064,
        -0.1783283362019761,
        1.0832112089545407,
        0.9152093494852409,
        0.3554852347385048,
        -0.07850969855810983,
        0.3104147632205009,
        0.4226529252110079,
        -0.16616177218056072,
        -1.5400884929801926,
        -1.3007349304163427,
        0.9735464762267518,
        1.1432255455017255
      ],
      [
        -1.3370671823403033,
        -0.6777821949974578,
        -0.7487504631914276,
        -0.9257234418541818,
        -1.2259787870416763,
        -0.46138836976528114,
        -0.24687136949157426,
        -0.8339984020371602,
        -0.6045473811425086,
        -0.7658369087202663,
        1.1567713998257945,
        -0.9255382858815708,
        0.09053584950028237,
        0.7188590537224427,
        -1.1172661515928886,
        -0.5941170088150969,
        -0.7377723149909114,
        -1.3160781110004645,
        -1.262065881925761,
        -0.6328381999332883,
        0.4658382431091747,
        0.4811791170755857,
        -0.6797901180229153,
        -1.5338362679438466,
        -0.477161671846796,
        1.305503292503377,
        1.0796951426940027,
        0.41545509057580304,
        -1.1803898311468948,
        -0.3737849281542829,
        -1.6529584140016813,
        0.843595975086191,
        0.32180749025031874,
        0.5664181488633758,
        -1.3897064734574587,
        0.7471154796661167,
        -0.29274646544663446,
        1.1454552892808736,
        0.736841186714256,
        0.24980257110389517,
        0.31643620792316857,
        -1.1006488632867673
      ],
      [
        0.10875794281977767,
        -0.29174557307349475,
        -1.7144310940138867,
        0.5148668846809489,
        -0.39421874887886554,
        0.33372955657866327,
        -0.40737284371857757,
        -0.8996846167711735,
        1.640144948337345,
        0.3179871885069964,
        1.2953981000744055,
        -0.7503802545422762,
        1.6004975243359265,
        -0.741074517170563,
        -0.8089381886644069,
        -0.7158686674710516,
        -0.4735852825713668,
        -1.388824415218261,
        -0.21594826215441368,
        -1.4669658634599,
        -1.1756034798055015,
        0.4131402647341732,
        1.6872484698277972,
        -0.17147118114580848,
        0.12813979868189385,
        0.06522020804254038,
        0.15121206537682233,
        1.002549024237982,
        0.3401062631979161,
        -0.6581688850878917,
        0.7290406611857587,
        1.2278064215803703,
        0.03168280522287682,
        -0.24291663761909044,
        -1.170198127574879,
        -1.8453452272603423,
        0.11907474151177293,
        0.026178922501322525,
        -0.22962637857863794,
        -1.33612294172142,
        -1.4920035522625847,
        -0.6456223826976792
      ],
      [
        0.459260686723047,
        -0.9830498003894641,
        -0.7836996979297586,
        1.3331252190945244,
        0.6692596599087917,
        1.8313177571425179,
        0.7575104063277356,
        1.4194892167240767,
        1.5658309854838537,
        0.07879142455920635,
        1.2826047236668625,
        -1.5121233940054017,
        1.1335537000815221,
        -1.498042942123066,
        -0.8346356393498078,
        0.821882654005341,
        -1.0616551093591153,
        -1.6005584988612576,
        -1.224998788650065,
        -1.6501859892110937,
        -0.7221886078395676,
        -0.6205994623272097,
        -1.1371510070787485,
        1.158357566351383,
        1.0389262097654866,
        -0.4575828060760535,
        -0.7031733608468671,
        -1.8406243746271986,
        -0.3178556002899961,
        1.038817026847889,
        -1.2835099347414434,
        1.4182427236851545,
        -1.3135286395759629,
        -0.8794284011088414,
        1.4236471674381899,
        -1.3224449274711851,
        0.4092661617131892,
        -1.0742124010092062,
        1.0844567258936695,
        -1.3792574016754007,
        -0.5468138261864226,
        0.3008697028475726
      ],
      [
        0.09124784744370129,
        -1.0485978320748754,
        -0.8870448681903048,
        0.6609166780632825,
        -0.7234478770502197,
        0.2333456647821604,
        -1.1713942183634352,
        0.248470448506997,
        0.9442491304593289,
        -0.35173270069252954,
        0.9670322380935281,
        -0.45483626842661484,
        -1.5797506945027462,
        -1.0031725587553322,
        -0.5900017656388222,
        -1.1027020104893566,
        -0.8503469863821222,
        1.2078229170233867,
        -0.2954327207930277,
        -0.4276302978146283,
        0.17996128950910809,
        1.4504529246787332,
        -0.4408074016857804,
        -0.22079810497597965,
        0.3335951875434544,
        -1.0029390694432723,
        -1.0600966215088137,
        -1.106772517926267,
        1.338460117490578,
        -0.04152470785493947,
        -1.5794317649740037,
        1.2707375548725452,
        -1.129083161290248,
        0.9336985067188422,
        -0.32346688012120967,
        0.4453419258139302,
        0.1379651472845598,
        -0.1221855108261799,
        -1.4156962682681775,
        -0.48716845910747464,
        -0.10461511649371649,
        -0.3485476819746559
      ],
      [
        1.1590634976193674,
        1.1288862029232776,
        -0.20738891770461773,
        0.9397862639076691,
        -0.37675023967803056,
        -0.17926665521644577,
        -1.3082850773052617,
        -0.776134459532477,
        -0.2720597776848278,
        1.2641935329490146,
        1.2426577212421825,
        -0.06622798578926799,
        0.8259937648558769,
        0.33971296042730365,
        1.306464079475322,
        1.1354951848392818,
        -1.364926485362559,
        -1.1592742383053227,
        -0.8103985575511921,
        0.7596687275596852,
        -0.9601602278072533,
        0.09345711854902332,
        -0.8751682316295869,
        1.219197634338913,
        -1.2216122447890247,
        -0.7665767918978056,
        -0.5403467180208364,
        -0.07873058945111117,
        -0.4630466986161616,
        0.6333550744173594,
        -1.0907401788649356,
        0.09303492773662386,
        -0.3357517865003164,
        1.4134055183712688,
        -0.14727746555211457,
        1.516187698495773,
        0.9515210494246613,
        1.0645043128893072,
        1.6394917708932684,
        0.7967527934345733,
        0.041009088044863265,
        0.09868448779398126
      ],
      [
        0.16806175412585064,
        -0.9539431380783256,
        -0.082452169614239,
        1.5259947624691828,
        -1.4077602491849488,
        0.5221003153645807,
        -0.6982149384008581,
        1.5345765088886116,
        -1.2505751443171553,
        -0.6437086255899701,
        -0.4315408315805084,
        0.1814736563383215,
        0.6447422311165266,
        -0.6466079385078395,
        1.7375141430182488,
        0.42326469524742855,
        1.6090526493079564,
        -0.6798715979848325,
        -1.4045373969575097,
        -0.25645742541188665,
        0.9910470866155802,
        0.36276343700450875,
        -1.1059050509506678,
        -0.6854032064959974,
        0.7831629608068409,
        -0.5653005682841733,
        0.9844129830945979,
        -1.1117419391977699,
        1.150348335943952,
        0.8840539409762449,
        -0.12541201525815387,
        -0.13475889410385586,
        -0.33756015226113134,
        0.8686791803247973,
        -1.0624665639326514,
        0.13684320415653647,
        -1.1373777005457255,
        -0.8276736615044015,
        -0.13908084121656727,
        -0.4684375370123108,
        0.7528316161601369,
        0.5160906623962909
      ],
      [
        -2.272114838403991,
        1.363481956254223,
        -1.4664126609962511,
        -1.0935295190114336,
        0.3538104716562508,
        -0.1935152958131535,
        1.0852324888693359,
        -0.255352682361331,
        0.05210857819081266,
        -1.9273601389586412,
        0.6561637721645035,
        -0.15390702939157946,
        -0.6440292750564107,
        0.2518190573521995,
        1.0579162882009956,
        -1.150022792039641,
        1.179789756495026,
        0.6569150648897731,
        0.2425886636229152,
        0.4008177878167404,
        1.3353249756226977,
        1.2948558318370098,
        0.8112782565576558,
        -0.33161192041881243,
        -0.8069702483259021,
        0.5963280122073161,
        -0.4553959177096866,
        -0.5116614276515745,
        0.6180260797519671,
        -0.9287149585307263,
        0.838386272251782,
        -1.2521584408680222,
        1.4418323269557407,
        0.9162895569646656,
        -2.0040093949699376,
        1.070671694758564,
        -1.1497420854199556,
        0.048098886956650426,
        -0.14873327393402289,
        0.7022447924814422,
        -1.1056516294913246,
        0.017678521824404665
      ],
      [
        1.4813536190521148,
        -0.3170099513378347,
        -0.46702916735119787,
        -1.0206656383659316,
        -0.5906327201747781,
        -0.36245075311398434,
        0.24592508010116215,
        1.6709221587509426,
        -0.8009819499580206,
        1.4481545356495842,
        -1.1605485520355696,
        0.368573373721192,
        0.5702982303442716,
        0.30202761996516525,
        0.6862171208481662,
        0.920317089386464,
        -0.5115528220777007,
        0.9141000979299188,
        -1.1111587217795287,
        1.7147391318005223,
        -1.1894129966512788,
        -1.0297851211148017,
        0.8178228058085572,
        -0.04137769576083066,
        -0.41510699258035755,
        0.6682319130476988,
        -0.586761553102613,
        -0.06177054273828784,
        -0.04262128242810088,
        -1.7011420544989746,
        -0.07555795167069568,
        -0.9094817864452882,
        1.4572496931250156,
        0.7090251295762899,
        0.686312394585473,
        1.6159946713910747,
        -0.5129833342669388,
        0.6691985774743466,
        1.016443180933278,
        1.6989636896052416,
        0.36098501980065983,
        1.9221100676086273
      ],
      [
        0.8005187072124192,
        -0.4946357437627133,
        -0.5766656235273514,
        0.9371539022371156,
        1.24379516034192,
        -0.5298642923815766,
        -0.7106833578548566,
        0.7070589087946824,
        0.9973088934639643,
        -1.097269166865901,
        1.3226662508015332,
        -0.5758321861374565,
        0.9547731447368514,
        0.846573884628996,
        0.9315532298956866,
        1.3677854285704236,
        -1.0759631298846297,
        -0.8949051279294958,
        -0.9331397155215074,
        1.1863064160144785,
        0.01609975162510594,
        0.48441905348488135,
        -0.3978103218460283,
        -0.19667045348716336,
        0.6970741902557223,
        1.2106764464345225,
        0.5361247375366104,
        1.2368447088743832,
        1.131380319200429,
        0.25585098177208926,
        1.005700963321312,
        -0.6655901380783807,
        1.4288967578296263,
        1.4713003775368008,
        0.7402971584377247,
        -0.21038028125952463,
        0.8704717477541216,
        1.4550808252676286,
        -0.4068077788848685,
        -0.7791295105356493,
        0.8768944335576664,
        0.10863485171474133
      ],
      [
        -0.41189294175753915,
        0.14550605087955873,
        0.24814476069146224,
        -1.0935294943837819,
        0.7355073080850908,
        -0.7731017513484688,
        0.46825360876909056,
        -0.8950504666261141,
        1.3750453453915108,
        1.3871498665762123,
        -1.2664045386212677,
        1.3570621698904788,
        -0.5018776065627639,
        -0.0638388857410573,
        -0.6033078960246201,
        1.3598150090705585,
        -0.9107833431359859,
        -1.0890384991078568,
        -0.4119783103592025,
        0.438026478183176,
        -0.43037919721029316,
        0.5234010390225882,
        -1.218345753114779,
        -0.4126553774957733,
        -0.46646136630585505,
        0.3807982050249033,
        0.31878281127322067,
        -0.6456786127493724,
        1.2674581975098715,
        -0.7779848232179366,
        0.8141615654299628,
        0.637584479056836,
        -0.9942243237179527,
        0.02424421231653028,
        -0.7480266259890701,
        0.8578976778874337,
        0.18848042380658914,
        1.6095934921654655,
        1.5337861021954287,
        0.6344311501384574,
        0.743111459592329,
        1.0793019526041379
      ],
      [
        1.2980089309968883,
        1.2087171346399055,
        1.2910016267703077,
        0.3063661132027125,
        1.1815214206001168,
        -0.42344324821594787,
        -0.023949909175471264,
        1.0145780729835485,
        -0.015928157287885686,
        1.3934178679083116,
        1.3123681255158697,
        0.4703237690746782,
        -1.2680078196871054,
        0.42971260792419486,
        1.0238876215226576,
        1.0982178212151639,
        1.3263499030566692,
        -0.5136506831801155,
        -0.3171103564026943,
        -0.9441444894834016,
        -1.2503333110272308,
        -0.4250958465339502,
        1.3573634296512682,
        -0.33930342686264453,
        1.1248440611478847,
        0.7698533161558526,
        -1.3123445142627166,
        -0.7341573827337475,
        1.1169867080391203,
        -0.6230989199400284,
        -1.3980423706496383,
        1.350734483729417,
        0.006619355310385833,
        -0.3190891042545928,
        -0.5986222404733806,
        -1.4706773132715003,
        -1.1480096014536316,
        -1.4520046105814932,
        0.06873407218271203,
        0.9898102751968283,
        0.48103046101558955,
        0.9668392402687713
      ],
      [
        -0.6138513173476655,
        0.2795731829669745,
        1.0813530735182504,
        0.6802536705059224,
        0.5406391662945342,
        -0.4209138616345771,
        0.12839672309261582,
        0.949445162235266,
        1.1162053329656914,
        -0.7902208363496018,
        -1.384088909411091,
        -0.6500463265339053,
        -1.2591734016378326,
        1.5532821562324022,
        -1.0311055226919126,
        -1.2226736169915482,
        0.6353938199813592,
        0.7537547658579942,
        -0.9618287780234526,
        1.1103719854348473,
        0.9060473283357503,
        -0.477702956781569,
        0.9623721891536864,
        -0.5439686100989694,
        0.782488386747175,
        0.44222849822509736,
        -0.45512711675004214,
        -0.9586135621710165,
        -0.7095987847230935,
        -1.0792825597835616,
        0.05359774185745056,
        -0.018796295045208557,
        0.11120155480789648,
        0.5847654152090116,
        0.7728486926926542,
        0.9060048467259337,
        -0.5409926229579196,
        -0.3465218969668482,
        0.5952997497634729,
        -0.9963766031100703,
        0.8204085669615351,
        1.3674330371564969
      ],
      [
        0.9185506935588093,
        -0.05665926355001322,
        -1.4641711277106289,
        -0.6247299976456455,
        -1.5534834534094422,
        -1.0448970672147246,
        -1.6801314281878432,
        -0.3245480609131241,
        -0.11240257178262915,
        -0.6362940512375509,
        -0.5973626523699329,
        1.1171936274336727,
        -0.8160555539824595,
        -0.6026934428582819,
        0.061213592443614684,
        0.6826170770860631,
        0.9557704577506814,
        -1.4388904198408239,
        0.11977758666533847,
        0.7023702711305129,
        -0.38441482501513086,
        0.6821555950724425,
        0.05781048712633364,
        0.12887932616721648,
        0.5262960092547345,
        -0.75227453649641,
        0.5398488619989921,
        -0.25845742059953125,
        1.631485799312916,
        -0.2538291204653723,
        0.15971509483365035,
        -0.4091603444021835,
        0.6517036516911292,
        -1.1727574404550405,
        -0.9643618407771882,
        -0.4618026973558117,
        0.998036472579022,
        0.85649307763688,
        0.5921350892497846,
        -1.2860305541613395,
        -0.8395904063542156,
        -0.06163210499199242
      ],
      [
        1.0601437772674454,
        -1.404255355533103,
        1.4750553096514996,
        -0.4486744057970089,
        1.0978115999127684,
        0.4742135288644181,
        -0.3242377191540651,
        1.057865834323946,
        -0.836346276737687,
        0.041224991067440056,
        -0.9904498192037338,
        -0.37146512459957054,
        0.05679810722619817,
        -0.8640638129227473,
        0.46589894092030626,
        0.43122976154466,
        -1.1904264190925695,
        1.1318462861450702,
        -0.05329986552291933,
        -0.30241501070855703,
        1.539688466313673,
        -0.6533931686618234,
        -0.24095457265222364,
        1.5061555421918955,
        0.5241305566753666,
        -0.09274034153076616,
        -0.2789113196351153,
        0.3795579549399345,
        0.7775304866136157,
        1.6714869734167859,
        -0.40139040382398355,
        0.8529840169862482,
        0.7185408382145576,
        -0.8618745765451169,
        -0.04304247536384574,
        0.16896781508567693,
        -0.27708737405339845,
        -1.2772171323010826,
        0.24856221553861788,
        -0.5940874582590161,
        0.9505401502484272,
        1.3958444484227628
      ],
      [
        -0.006494523023441057,
        1.0591647123064536,
        0.22295568717232161,
        -0.5102455947897474,
        0.8768249110566694,
        -0.3287770394863861,
        0.9546990375392901,
        -0.9702328975662253,
        -0.6404883681506636,
        1.3451747196216817,
        -0.06880279560211731,
        -1.1657690389782231,
        0.30614415806030276,
        -0.29227826935841983,
        0.30171390545420057,
        0.12491763284366207,
        -0.9891921209087107,
        -0.451929247230156,
        1.139624918228141,
        -1.0873941262599196,
        1.3227453416282664,
        -0.6793876634022129,
        -1.3770061170277403,
        0.2535246650610131,
        -0.2619971980851973,
        0.15773744526665712,
        -0.918492275889432,
        1.0108112090654586,
        -0.7421197493710425,
        -0.4271779724272861,
        0.02917002101185664,
        -0.026851856920557422,
        -1.7008644186728448,
        1.4177544418322379,
        0.36863721441575736,
        0.052487661500617996,
        0.7784745133357205,
        -1.3556310280260127,
        0.7111236419703459,
        -0.48245696359246787,
        -1.5981350494542832,
        -0.12854455588680472
      ],
      [
        -1.1649254841609953,
        -0.11925483725241684,
        0.7533273837123651,
        1.0208396751038535,
        0.8375424578656103,
        -1.1015136535321948,
        1.619664491345861,
        -0.8142994957764218,
        1.7832004469835907,
        -0.37421400370946856,
        -0.6862931090273207,
        -1.4464986235994912,
        0.5393316838216277,
        -1.5776633852602244,
        -0.46014223179934943,
        -0.26818539792572726,
        0.3794335685462224,
        -0.5964003017895168,
        -0.6999274673510192,
        0.8747913929393806,
        -0.7089418032465159,
        1.3660339154645618,
        -0.4128956708508265,
        0.16939276731997666,
        -0.2956629128589181,
        0.49269275326248574,
        0.2037945609137293,
        0.04500341824584867,
        0.5987101623620734,
        -0.8536091881817739,
        -1.4428645099965995,
        0.10442527584386806,
        -1.4864538042840325,
        1.0297665419040676,
        1.285096012251748,
        -1.5125848417957635,
        0.7703234764424755,
        -0.3988038861157276,
        -1.5185402288809082,
        -1.5788220062739986,
        -0.3973447405933959,
        0.2649086481225071
      ],
      [
        1.6470999726187159,
        -0.46440486470129233,
        -1.153460521437714,
        -1.2579307126071928,
        -0.755858422326795,
        -0.6665359769893909,
        -0.6474064513719859,
        1.3015586876296548,
        -1.3913934527326666,
        0.06903128393446861,
        -1.3118878721886928,
        -0.2834779328429759,
        0.5673775806098402,
        0.4513558031508701,
        1.4621027235396435,
        1.393594377504612,
        -0.6492810336190055,
        0.7132173314751983,
        -0.2339503922033655,
        1.1592455351067579,
        -1.3057661576801467,
        -0.9471311218678585,
        0.5961670189830367,
        0.5779484285094987,
        -1.086083256228526,
        0.36887022096323624,
        0.27590672022366364,
        0.16091266096905882,
        0.7975535933210863,
        0.1764198665169074,
        -1.2744601749697826,
        -1.3617375547869504,
        -0.3714081067478093,
        -0.7074687723467166,
        -0.6664012174781268,
        -0.24970353657730807,
        -1.0651068421661753,
        -0.023098886369632206,
        -0.6959965307119277,
        -1.4708417865328915,
        1.3318770484413058,
        -0.08241089508373058
      ],
      [
        1.033943282464925,
        1.2198328704853358,
        -0.9199654987278528,
        -0.048982485589536474,
        -0.03736439652824593,
        -0.3502124029774302,
        1.0522446170405628,
        0.6504849846866917,
        0.5203974991765443,
        0.5679599135197404,
        0.7171176317509707,
        1.4540132450940735,
        1.0614962406364068,
        -1.318604741699172,
        -0.5922728434415669,
        -0.08950391089436265,
        0.46768860941721335,
        0.8403307377794182,
        -0.590777272976619,
        -0.3974042340689026,
        -0.7595881258661914,
        1.4183981007206248,
        -1.2635232756848953,
        -0.4314511860584882,
        1.2505873193514279,
        -0.8846804627356496,
        0.5079461405473243,
        1.1887497874698063,
        1.4165238657399388,
        -1.2683144833101716,
        -0.518767979585162,
        -1.352677548725402,
        0.11445578598710532,
        -1.1410347727255374,
        1.6839779825441334,
        -0.3351023565311357,
        -1.2179566559753545,
        -0.6415971307881996,
        -0.47391901422495847,
        -0.8449098619071864,
        0.5787826176240197,
        1.2136581889288465
      ],
      [
        -1.452809202259659,
        -1.4470936606648444,
        -0.4525440475992033,
        0.8660065776621716,
        -0.7494088139340499,
        -0.9510173938163972,
        -0.9761404624032909,
        -1.4093605148764417,
        0.15853900376917335,
        0.2945458588730566,
        -0.5394745617569716,
        0.5944901109784787,
        -0.8238715457120436,
        -0.6735805149764129,
        0.6946511932527054,
        -0.6975004836448663,
        -0.8800368975272957,
        0.6127183476841941,
        -0.5683650896091601,
        -0.1737150066981181,
        0.424416574597757,
        -0.5632153315158055,
        -1.2173059800985022,
        1.0624677398416633,
        0.1746887873902655,
        1.2513680201797557,
        -1.4786949738835617,
        -0.9698101186634391,
        0.8415297822361861,
        -0.29845867406355314,
        0.2699514976313012,
        -0.654866339134421,
        -1.4204991176849793,
        1.4052867606882553,
        -0.41940218082175396,
        0.36545565872518404,
        -0.3224295661886355,
        1.2424832611027747,
        1.4315290592353616,
        0.5159204965541486,
        -0.3747860568405357,
        0.9530957116459282
      ],
      [
        -0.9001092355719909,
        0.32923580105572403,
        -0.12071353573880804,
        0.48230680101291556,
        -0.6227427940236914,
        1.4347460361509294,
        -1.3038948123509073,
        1.571658663219333,
        0.008725236424387063,
        0.34885153119399515,
        1.2540222842958475,
        0.7946846391302607,
        -0.7281972834304398,
        -0.35661229279546963,
        -1.097552394253878,
        -0.37440517821273367,
        -0.28055259851871517,
        0.7853549442447765,
        0.7129144507921457,
        -0.8949557210943216,
        -0.9852981273423191,
        -0.22507168733623625,
        -0.010705087756433104,
        0.44871234953917394,
        1.2848139932273188,
        -1.4096999373881427,
        0.17204994849261512,
        -0.804005652213968,
        -0.8832231574769431,
        -0.6063894153089647,
        -1.1565090491407837,
        0.07826443781322791,
        -1.1901685928970847,
        -0.3769068150626033,
        1.240777627302729,
        -0.36933926995061184,
        1.515797096554774,
        1.3358657124643014,
        -0.400350498232576,
        -0.9292459899584304,
        -0.5546729385693979,
        -0.8612992244207475
      ],
      [
        0.11903292177201018,
        0.05640513770676736,
        0.8277866827381016,
        0.955513419650453,
        1.2708703293965844,
        1.0244184354137968,
        -0.6623390244480148,
        0.9393232138752163,
        0.6771088773791022,
        2.046358011614092,
        0.7540080453883584,
        0.9697101838800886,
        -0.42359186477768623,
        1.5522516961702528,
        -1.040922118815386,
        0.5911492318973224,
        -0.8115731693715895,
        1.0042468455686857,
        -0.5697898360131252,
        1.8080296458284135,
        -1.189354705176623,
        -1.7156344619528807,
        -0.5582242370892698,
        -1.7268396293382895,
        0.014553842912562908,
        0.2869540836536389,
        0.8763932937096388,
        1.2876493630973083,
        0.5657711376306828,
        0.5607429318852196,
        0.6147670691192034,
        -0.8000096223004729,
        -1.3081083328809806,
        -0.9131305651242692,
        0.7941860845615485,
        0.3329080831300983,
        -0.21562509719344222,
        1.6380480722428128,
        -0.6832575285310319,
        -0.7108893434522572,
        0.9709381867551107,
        0.6267891005252928
      ],
      [
        -1.3040916471166673,
        -0.16631274544128413,
        -0.7963420427588299,
        0.5181908842203078,
        0.8175840147325193,
        0.19172348870975095,
        -0.6515880002285511,
        0.4444317422613708,
        0.4612069151171773,
        1.1081314959684019,
        -0.6893961591045517,
        0.7889237445559084,
        1.2814721071137811,
        0.22352149379022151,
        -0.9959969425905826,
        -0.5958154237304539,
        -1.4821091610597572,
        1.159627744134123,
        1.440805056569523,
        -0.35204315251222273,
        -0.2197743089611806,
        -0.3458034652424406,
        -0.6177352731594723,
        -0.40246026505231564,
        1.3494845603488548,
        -0.7642271856340258,
        -0.7654769538728107,
        1.2087259620569204,
        0.1905659346534972,
        -0.5986020238090491,
        1.3081837498664126,
        0.6728172562381273,
        -0.04414952010156108,
        -0.458542956963647,
        -0.20618825149439013,
        0.1280926035197463,
        -1.3302727093035491,
        1.2638762567848576,
        1.348300038029435,
        0.09565932550481268,
        -0.17117337129347057,
        -0.7188157951969497
      ],
      [
        0.2176886213999809,
        1.454372542178006,
        -1.1464679318148596,
        -0.7077645245698156,
        -0.6475674206658623,
        -1.8673154438988682,
        -1.1562534902494603,
        -1.6567038144908481,
        -1.0667781580481295,
        -2.0785490707684775,
        -1.383380803897742,
        0.23407910939684579,
        1.0112905057603179,
        -1.3115664968727947,
        1.0642160152188918,
        1.0447217507781001,
        0.010662540874167941,
        -1.0413991812367107,
        1.4545190956327831,
        0.5672236391088504,
        -0.2748307283639408,
        1.2871785532348974,
        -0.2777970275328082,
        0.8946656965139663,
        0.6227337143929588,
        -1.100418875085159,
        -0.12250439100967137,
        0.3132600729032546,
        0.8589642248255445,
        -0.3732649834859729,
        -0.5108386202927092,
        0.43611519661835274,
        0.8825403892759125,
        -0.11709378983475237,
        0.3537147438730486,
        0.9765659966867064,
        0.06872017151671654,
        0.5522553967634865,
        -1.1384007236178104,
        1.3834481377194205,
        0.9929033792081263,
        -0.9596420777836112
      ],
      [
        -1.237739817139044,
        -0.09789053984271064,
        -0.0401139048077298,
        -1.167190034832087,
        -0.23461613191222191,
        1.313035518517859,
        1.2961495907272766,
        -0.43712011198756234,
        0.7579586752533253,
        0.45195501295444795,
        1.4852744299582363,
        -1.0793153030772245,
        -0.014023135662075907,
        1.4599147649273818,
        -0.9966609110992356,
        -0.42340625715766433,
        -0.8019738967971093,
        0.2889645571746599,
        0.4607985999384676,
        0.62712300126432,
        -1.1723572742459067,
        -0.8531173835060001,
        -0.7646133895430939,
        -1.354648671079444,
        -1.2534546073595352,
        0.05959559639193848,
        -0.5513932028045802,
        -0.9593033407515259,
        -0.2068167325476904,
        0.7452602783947573,
        -0.6572237903735675,
        -0.2948931319770141,
        -1.140659523250182,
        -1.1528898786542991,
        -0.9462017015140322,
        -0.7294432747151653,
        -0.10492745954784055,
        -1.2894897901339377,
        -0.7663764270827964,
        -0.6287218870875305,
        0.48041417765150973,
        -1.0418588319434379
      ],
      [
        -0.5629417526823902,
        1.1086526744132355,
        0.07418363422944528,
        -0.18848468373223867,
        -0.4697133491921564,
        -0.568383535516913,
        0.819730430955633,
        -0.16145294882972686,
        0.9173117430613419,
        -0.5224640284673182,
        0.3352990307562425,
        0.43646853351757087,
        1.3338458576120076,
        -0.2807151711789667,
        -1.3109035453962883,
        -0.48369621583556077,
        0.7672303248671414,
        -0.3766065339645352,
        0.43917394170014884,
        -1.3918668583913525,
        0.7030909293939565,
        0.10478484726315893,
        -1.2173538269357043,
        0.2582034219351096,
        -1.414314000421921,
        1.4265257517953993,
        -1.1446679687553463,
        -1.1416138387234187,
        0.3198533210708148,
        1.6906852179636158,
        -0.17481580940070493,
        0.9952878489755715,
        0.19438444139862432,
        -0.7666688563377564,
        1.1813392101736653,
        -0.7229919756091784,
        -1.4520953872103706,
        -0.5896241294333939,
        0.6494476327136985,
        -0.42425916699796823,
        -0.049525259305055414,
        -0.5185601268656683
      ],
      [
        -1.0468781734754213,
        0.8777898054665618,
        1.156931937728662,
        0.38109132409884744,
        0.6871222284581853,
        1.0371702715670243,
        -0.44542039852711945,
        1.4445680280687552,
        0.844396458589006,
        2.0619894911854653,
        0.8084355298361183,
        -1.1333612655622005,
        1.2305457177401407,
        0.2570306655552696,
        -0.8646260153992938,
        -0.6951437354440879,
        -1.2027047130950488,
        1.1737209222676845,
        -0.9234841538254911,
        -0.34667770403974874,
        -0.21923924459989425,
        -0.7078397024890366,
        -1.1881416869396213,
        -0.06036141180253623,
        1.414249423926847,
        -0.43466464066924027,
        -1.236725875578684,
        -0.5162967273807151,
        0.7144273204891758,
        -1.2437819065808562,
        1.6684952704676799,
        0.14682145465837557,
        -0.08083233542686327,
        -1.0111820390868738,
        0.20647619399414038,
        -1.3124163094499586,
        0.198431755698484,
        0.8795843685127129,
        -1.1856219872547653,
        0.8221678826591783,
        -0.4849021006333438,
        0.5938017832515531
      ],
      [
        -0.6898321701507484,
        -0.3886860394161573,
        0.06180205443349741,
        0.5384886590487463,
        1.0633690011626085,
        1.2326507840627565,
        0.6723715265236738,
        -0.3712792525106051,
        -0.18032464130068626,
        1.1945660449802702,
        -0.6953711724672678,
        0.9252089355382414,
        -1.0748693223322145,
        1.5066267072307706,
        -0.048924897503613736,
        0.5632484663784928,
        0.7828850200031066,
        0.9995146216684418,
        0.7724998566909891,
        1.0040795004685417,
        0.079409508605404,
        0.8025996131596712,
        0.12133408630122433,
        -0.41597952824279577,
        -0.019596870735345415,
        -1.2006511883242637,
        1.0547322986078047,
        0.912452906504638,
        -1.1814262065754002,
        -0.5543164831606967,
        -0.06980841396799671,
        0.44147020901996614,
        -0.2075898265367971,
        -1.439635296215258,
        -0.4061261173780916,
        0.6830561065138604,
        -1.2458084750111031,
        0.052798817406294864,
        -0.5111944952940214,
        0.14718859329934955,
        1.225555540064136,
        -0.6417159467110334
      ],
      [
        0.28920633007552915,
        -0.9221628889236867,
        0.16411610565293897,
        1.177156822423652,
        1.5256606001710522,
        0.7459624841837577,
        -1.0197552226592492,
        0.4913714438706523,
        1.558269545722637,
        -0.21133894747557166,
        0.43153512000003635,
        -1.0574014174825657,
        -0.02195747443778949,
        -0.9797453244672877,
        -1.179569426711716,
        1.0222342662489237,
        1.3491873652914466,
        1.2433669435643013,
        -0.6664985419843407,
        1.081950323840854,
        0.9796395919987456,
        -1.4715950682751309,
        0.9305365636002823,
        1.1612624395621658,
        1.3201846526352814,
        0.35496027572147554,
        0.8441517823875976,
        0.22563816213535812,
        0.6619860240412286,
        0.5803887173983526,
        -0.08502545594921129,
        0.3010287246232096,
        -0.5361173890423379,
        0.7753097732030291,
        0.39279678828087455,
        -1.4130370054421475,
        -1.2067773856640216,
        1.514238243133411,
        0.22613868213913116,
        0.3104679493024846,
        1.5984590630847786,
        0.40667852703318974
      ],
      [
        1.6897708415277943,
        0.6778357017969746,
        -0.6016393176107279,
        0.2437797236472079,
        -0.9646899630020084,
        -1.575197565031754,
        0.020090799970025042,
        -1.7483093230212368,
        -0.36827414760775223,
        -0.7253555084423621,
        -0.48471294538346865,
        1.5259436903698216,
        -0.642998385263946,
        -1.4502056400200782,
        0.1645114030232704,
        0.4217883545146059,
        -0.181872114937295,
        -0.29682528935214414,
        1.5949389509463288,
        1.181590898234218,
        0.6206473767778656,
        -0.014464951640154511,
        -1.145951104246564,
        0.8777116509725318,
        0.0043139289598378575,
        0.3298646237119274,
        -0.43586193497095327,
        -0.2626709574041513,
        -0.7654481926245377,
        0.13697808623336963,
        1.091922307454142,
        0.9721090831808608,
        -0.3149234858329402,
        0.4780816222684581,
        1.5007415175314858,
        0.8851726308768901,
        0.7587895852004632,
        0.2645475120118073,
        -0.6832420877615653,
        1.3651379608597076,
        -0.9994670595552592,
        -0.9797359134609991
      ],
      [
        -1.5153928293035854,
        -0.8622434213524451,
        -1.7875409258487163,
        -0.43279291819990623,
        0.7869879500068844,
        -1.0234360262636788,
        0.3047400930870979,
        0.6185734304820684,
        1.2197496921521507,
        1.4101129383170028,
        -0.6027435876914119,
        -0.472386939660281,
        0.7248627576625681,
        -1.527259594609236,
        0.5465165989733393,
        0.8251052248962066,
        1.1747134613262766,
        -1.321412016881111,
        -0.3217594189335739,
        1.0546380780134108,
        -0.4484185205710335,
        0.07975227426020341,
        0.29594115822485895,
        0.12070842037497914,
        0.8355696381388529,
        -1.0377177577479133,
        0.9034571409631501,
        -1.0984382737121012,
        1.0528662593002682,
        1.2220339704899523,
        0.2048950351687513,
        1.440953725584279,
        -0.6124460409089455,
        0.005492967607385822,
        -0.47855322979678755,
        1.0355980392355608,
        -0.735755820088762,
        -1.294580328831195,
        -1.0423495951839366,
        -0.29072196786686305,
        0.11867590399977887,
        0.35659776966678897
      ],
      [
        -1.2196239365314372,
        -0.5361562288607844,
        0.548318715908242,
        0.9481175944816039,
        0.1434404854294217,
        -1.7545277573481102,
        0.37247443737374486,
        -0.3157012559785782,
        1.4517161051434953,
        -1.1652774222507318,
        -0.1514929635805388,
        -1.283488865962556,
        -0.3053520234891097,
        -1.488945296201839,
        1.3697383440184001,
        0.17058628709414753,
        0.542576849515058,
        1.104894593231351,
        0.5133063310965238,
        -0.6672559298119678,
        0.496264856281609,
        1.5239479663736957,
        0.33979377878236516,
        0.14160143949720302,
        1.5268472675948248,
        0.6091775237575785,
        -1.336854592532626,
        1.4436727959935611,
        0.6802549158384682,
        1.156461582234462,
        -0.255879303739561,
        -0.6193862244074559,
        0.02480404841315798,
        1.3105714325665663,
        -0.8022258086040693,
        0.921451471938176,
        -0.2779209595574177,
        0.8828776390678443,
        -1.0983280634194812,
        -0.8886519408850967,
        -0.7910809478138195,
        0.8774196190080604
      ],
      [
        0.7959906517461101,
        0.6889015524356414,
        0.9536477564941327,
        0.054178444169301,
        0.7916609771993999,
        1.1243286423556638,
        -1.6608474509454088,
        -1.0466730952011984,
        0.9498967665835201,
        -0.4482488581165095,
        0.8100094061547499,
        1.6171715726413745,
        -0.30177416076117114,
        1.8313477657004702,
        0.8143712261190245,
        0.6552106143692368,
        -0.3702406563407665,
        1.2344995655535351,
        -1.2326800352296479,
        1.4270045976557375,
        -1.0890330896499207,
        0.2178824536634739,
        -1.2160737006751072,
        -1.2051598156719698,
        0.6363462718670337,
        0.07735674952581353,
        -0.6529870435871582,
        1.8781521162614028,
        0.6912499115411128,
        -0.8277071256550328,
        0.2722841272739759,
        -1.4901422784992389,
        -1.1397713946726054,
        -0.6716856893021654,
        -0.22040280584860378,
        1.9220826432285203,
        0.6996684446933681,
        0.04314931473009023,
        -0.27130305178992853,
        0.5094392154432628,
        0.5633649315491274,
        1.282250809978833
      ],
      [
        -0.5646170450647643,
        -0.036896035805605173,
        -0.44590335561445166,
        -0.551806031649076,
        -1.788578144165972,
        0.8785306364557858,
        0.7938105465548569,
        1.5334789512404559,
        -2.073139074524117,
        1.3834870577428413,
        0.47262048392918954,
        1.2776365947041828,
        1.2128662340712342,
        0.26655746047935247,
        0.04106109695620577,
        -1.0246345081174852,
        0.580472593066481,
        0.28720972168458764,
        1.0433437305245536,
        0.48841453775723875,
        -0.9419887095355493,
        0.004976580866155343,
        -1.1730500300894833,
        -0.3301340435871955,
        0.06228170048197342,
        -1.1107802329726377,
        0.18211675141750056,
        0.5660600799048089,
        -0.7827818920863887,
        -0.673433654340673,
        0.3596583487140654,
        -0.719836279704475,
        -0.5550725645303787,
        1.3134300822356595,
        1.5045104342761313,
        1.701157228767015,
        1.7772111711407672,
        -1.306469679566408,
        0.9227083427096033,
        0.48932097255884854,
        -1.037781561729186,
        0.31984930463325933
      ],
      [
        -1.4869274823842578,
        0.9063367033484803,
        0.01420721836105544,
        -1.1983775392584097,
        0.8404649220201896,
        1.0649022767691143,
        -0.3104132013663811,
        1.8895873503575278,
        0.8208802373113039,
        2.1848483464627186,
        -0.945893435871022,
        -0.7903202799675251,
        0.9346411241385602,
        0.9310268434326434,
        0.9352753034313452,
        0.05042768055065188,
        -1.0685151592285642,
        1.6040947048864063,
        0.05337094006503365,
        0.2948040644152949,
        0.3767610475552327,
        -0.5180353320495431,
        0.1250760986018937,
        1.06056144052982,
        0.5894136159628577,
        0.2923607918603181,
        -0.7989292839488236,
        1.2475004477556577,
        0.19634068954464792,
        -1.47560276809952,
        0.9810571512146532,
        0.16690168708269074,
        -0.5468962268888593,
        -0.7272605847812174,
        0.48981814626542225,
        -1.1098513236612184,
        -1.5766810549785042,
        -0.480983483567019,
        -0.11541264945988479,
        1.4918828053195745,
        0.8841545992159519,
        0.46320028970912874
      ],
      [
        -1.0735819244178664,
        0.18217212497701882,
        0.4678998064281347,
        -0.520230143151382,
        -0.022249153243260357,
        -1.190952190902608,
        -0.40096735573567055,
        -0.6931329073612029,
        -0.03354365562016529,
        1.153755525570101,
        1.0918158588340137,
        0.6480607998841433,
        0.9223326484117944,
        0.8921290236993397,
        -0.5326073654538598,
        -0.7717982039104658,
        0.3866589328851112,
        1.260731312233065,
        0.2548475583466593,
        -1.397620223196971,
        1.2103828490370008,
        1.294222170040771,
        -0.8763527532629697,
        0.35211328445249324,
        1.1214986129165887,
        -1.1872389386795883,
        1.102211342101845,
        -1.1057329668172002,
        -1.0941546813726524,
        -0.7612872977281102,
        1.0431657310911864,
        0.29767449591112943,
        0.8813368822977202,
        -1.0892288953188525,
        1.0647229994098035,
        -0.6269822762997964,
        0.7032147281493734,
        -0.6749516050558922,
        -0.6169697529098975,
        0.9845764676586617,
        -1.3212816470727873,
        0.5076815483712258
      ],
      [
        1.178982654200317,
        0.8732793782377735,
