{
  "learning_speed": 0.02,
  "neurons_layers": [
    42,
    150,
    150,
    5
  ],
  "weights": [
    [
      [
        0.590038544772755,
        0.669772839213414,
        0.9801342334734913,
        1.2736311093393855,
        1.646418517058643,
        1.0616046522703146,
        0.24818003219301732,
        0.8310287981096844,
        1.7342485250219104,
        1.8407770482780696,
        1.077648137208679,
        -0.05163653259426563,
        0.17696290646639737,
        -0.611254836941115,
        -0.07557482809185632,
        0.2393047584866978,
        -0.9415883652444057,
        1.6957132132389237,
        -0.7989634642829422,
        -0.8530015168411796,
        -0.9435417628038644,
        0.9387108479043792,
        0.36786850364511825,
        -1.6896969108089543,
        -0.44337447579073797,
        -1.1271953444926697,
        -0.5068165343270663,
        0.5601071709118606,
        1.1215484981603356,
        -1.4131110127056985,
        -0.25389300331737513,
        -1.7952057501583512,
        -0.17157756643744349,
        1.3600402599433463,
        0.20177828428830888,
        -0.8363572926961833,
        -1.1335804579883686,
        -0.9683314375472649,
        -1.472862260955317,
        0.34331210728572326,
        -0.5240435721742923,
        0.9819130664505384
      ],
      [
        -0.26932776302136396,
        -1.4754801266422264,
        -1.5899095271881116,
        0.9418520886398806,
        -1.2163935540980217,
        0.019871281276815467,
        -0.14614975774682032,
        1.1420309882790394,
        0.22552204057944275,
        0.9142141156793941,
        -0.4887221291295074,
        -0.31128795753648125,
        -0.9517068319058298,
        0.2956161881236072,
        0.14574886504569928,
        -1.310218056962137,
        1.21303524006017,
        -0.6635234475952863,
        -0.09618775964859143,
        -2.094833814431346,
        1.4323632128918242,
        -0.985541004658277,
        -0.1672059496179815,
        1.1158718668755192,
        -0.17012187531126355,
        -0.22078824017317727,
        1.2901756205834434,
        -2.0638863016496174,
        0.5616072999249326,
        0.03101000133829442,
        0.4012689195560034,
        1.469710480132257,
        -0.25650305251856015,
        0.8513709646184285,
        1.3269064268208492,
        -0.5847560151680198,
        -1.1776202246576097,
        -0.6985167869826375,
        0.6579126166985425,
        -0.5278075276893307,
        -1.2570323132088599,
        0.9612710270586068
      ],
      [
        -0.5294790709594105,
        0.5107214331008065,
        -0.8926484398044914,
        -0.10684030588912721,
        -1.200246331709316,
        -0.793503264659513,
        1.06226515992559,
        0.14076013704690732,
        -0.579799571924577,
        -0.20298418901422208,
        0.46829216696044923,
        -0.12413280163061471,
        -1.1059453767648626,
        -1.0658196410153329,
        -0.20273604304231366,
        -1.6199952205937325,
        0.34712780975116386,
        0.29101669442320016,
        0.3837055181140279,
        -0.8395519319017675,
        0.32190525176201495,
        0.8759323779172018,
        0.9017156082390119,
        0.7340001748902961,
        0.5997573426088569,
        0.4101417137366094,
        -0.4814975254563796,
        -1.7969370461392744,
        0.08530682108138733,
        1.1568137460471373,
        1.1514902613678597,
        -0.9801992171733108,
        -1.524811791306176,
        -0.24268018320364462,
        0.283567737839483,
        -1.1724181925225186,
        1.209964951089033,
        -1.647368594999084,
        -0.3475220283582227,
        -1.7175612900859547,
        -0.9903553235642576,
        -0.6188109692826691
      ],
      [
        -0.25303235055886,
        -1.3542909484140087,
        -0.8436004236304837,
        -0.43250808055175655,
        -0.5219636898211911,
        -1.3266231445658156,
        -1.1531958887211458,
        -0.3168743788378663,
        -0.22616246115376282,
        0.3356894841065324,
        -1.2072116985497643,
        -0.7270531964150411,
        -0.36535336497916093,
        0.25014234261486756,
        -0.7543979059520393,
        0.17394618525595107,
        -0.9552741554492231,
        -0.6729150911688507,
        0.3758970981730123,
        0.2876020137050104,
        0.6716439932087626,
        -1.231580336758179,
        0.43223093395282297,
        0.01934305758241954,
        0.32058022967115307,
        -0.6445792086216237,
        0.038162358008260774,
        1.1328128296670636,
        0.43773947242380795,
        -1.0681597851555529,
        -1.530805877738703,
        0.6259685174608529,
        1.0777252359286953,
        -1.475349217250834,
        -0.036339392701165374,
        -1.0398800474621226,
        -0.7156316482846458,
        0.45563359659367036,
        -1.353189113830187,
        0.8543352867873657,
        -0.17206801772811234,
        -0.7236704255011418
      ],
      [
        1.3668673290227962,
        -0.3181442134969524,
        0.0482787980968449,
        -0.16466769135747344,
        0.13648754329187307,
        -0.6541958195107365,
        -0.041716645595487725,
        1.4116781065168258,
        -0.9938146018617855,
        0.5741878818864308,
        -1.3664805447471045,
        1.1287439342205046,
        -0.8701507522362124,
        0.6283043552342212,
        0.22756138076403473,
        -0.049952302595865326,
        -1.2047279769278836,
        1.3869445395583466,
        -0.3576025716483914,
        -1.2922771267934714,
        -0.970104466045079,
        0.4736829027784442,
        -1.143282340729922,
        0.22333252359961353,
        0.4079045120385127,
        1.5113535672252252,
        -0.5678619159965824,
        -1.1733479115326093,
        -1.0404113386928386,
        -1.3650380840238912,
        0.9440846315640778,
        -0.3472868459169576,
        1.3012861495397916,
        0.941001027544402,
        0.9588663184663819,
        0.6270699587882239,
        1.1700234113603223,
        -1.345486191779394,
        -1.5265593849967856,
        -1.567675077438177,
        1.254843842884171,
        -0.7032161519037947
      ],
      [
        0.8216157264738742,
        0.7663219006395998,
        -0.8736041362506931,
        1.4689337578875519,
        1.0316300771757225,
        1.3724927414739656,
        -1.258945755633904,
        1.9364355496036636,
        -1.6202131944931932,
        0.9846105283768513,
        -1.051677944432194,
        0.03870366222238435,
        -1.03656287721008,
        -0.4195784022587342,
        -0.5461421212005161,
        0.2952469346479226,
        -1.062186628707788,
        1.643724734801183,
        1.2586879851254997,
        1.2942416560167074,
        0.7350080001564315,
        -0.6894131324787495,
        -0.46505600412643894,
        0.11517706444888566,
        0.531668551321125,
        0.9017735366955695,
        1.238625101358986,
        0.16609455556714436,
        1.2196802735189212,
        -1.7236398185753554,
        -0.5965675664906004,
        0.3291499645426873,
        -0.523699644328352,
        0.8036301998476642,
        0.16373822907377486,
        -0.5161588106072479,
        -0.18172808578916402,
        -1.2856781944673705,
        -0.291707270634445,
        0.48981110811655915,
        1.1475111648844767,
        -0.7317981224189744
      ],
      [
        -0.17900418064839688,
        -0.5248548928945228,
        0.2781767535968552,
        0.3203055679894391,
        -1.2871542587419416,
        -1.2178631750709386,
        1.0731926645455607,
        0.9815368844519679,
        0.5955211601731951,
        0.4597179623011934,
        -0.043864076959750774,
        -0.7276715654980024,
        0.032815227293015434,
        -1.3559162995826932,
        0.8380197581294369,
        -0.38747688653578405,
        -0.43955806020971205,
        -0.49506841603306023,
        1.5324418232528325,
        -0.5421819030915067,
        -0.013590356763134998,
        -0.14637987620175455,
        -1.3203304556612474,
        0.6769929666731876,
        -0.09480509323594316,
        0.6517755792978339,
        -0.6871137265774616,
        0.019946518274309,
        -1.207964522850281,
        -0.2802597950309165,
        -0.5997170327806916,
        -0.25995446745492407,
        0.49975141208636364,
        -1.3862250459819587,
        0.08075578852993612,
        -0.18102492705165468,
        -0.6117922804992659,
        -0.7255485259549705,
        0.4006527675496688,
        0.18495331670249138,
        -0.3815676015185904,
        -1.4674051965459152
      ],
      [
        0.8888738480835152,
        -0.7744650449430911,
        -0.7127644288868887,
        1.2492739541739895,
        -0.3204093175848412,
        1.0436014823054724,
        1.234673878801241,
        -1.0427858838308457,
        -0.49140245663898713,
        0.30475271742828236,
        1.1474335379783047,
        -1.4983710113902773,
        -0.07457990262164829,
        1.1913800033967654,
        -1.4625397947576242,
        -0.2583394490723375,
        0.3563932256456373,
        0.4709004334190281,
        -0.3451465454344926,
        -1.2822378719951786,
        0.1539089812010393,
        0.8989651649270125,
        0.29564570629710263,
        1.043380389490472,
        -0.029519996979397733,
        -1.3328346704351857,
        0.8494121338101935,
        0.29292315640790645,
        1.2700547309474892,
        0.45713275894854516,
        0.17946817313462382,
        0.574062374216406,
        0.8079473534035863,
        -0.043329530362067686,
        -0.7302358525639538,
        0.44386514895883245,
        0.5645115947329964,
        1.3314928185027162,
        -1.5345569909027872,
        -0.36387220571175694,
        0.9475831374697393,
        1.4288244190906638
      ],
      [
        1.4241480050336355,
        -0.9932337586418079,
        0.5754050156564201,
        -1.185119128863649,
        0.6656076502973793,
        -0.8900145312761317,
        -0.44007617826795303,
        1.118363676849422,
        -0.022197848416966152,
        1.4318120228472504,
        0.7393280849038878,
        1.1885520260224531,
        0.9807410055295559,
        0.738484159789931,
        0.3736333428828378,
        -1.348625506849221,
        0.9260509219306353,
        -0.30751079825251815,
        1.2185100980851464,
        1.4628383759169281,
        0.978914536321613,
        -1.3097552003248858,
        0.7238169497605641,
        0.5801872841502769,
        -0.11075234154170306,
        0.4844088973065722,
        -1.5611511077594475,
        0.5191497031584308,
        0.5659898173103579,
        -0.8396078475325928,
        -0.6342989913494076,
        -0.5876494628592234,
        0.6338820094498693,
        1.4438822425073055,
        0.780147249686902,
        0.5735410795420922,
        -1.6051937399509846,
        -1.0903634324959732,
        -1.3479845888711115,
        0.06092830707670457,
        -0.9629156316305001,
        1.5218901880223739
      ],
      [
        1.777923274774416,
        0.8909779947919032,
        -0.8625605430266692,
        1.149680124851855,
        0.9198626040543646,
        0.1275777052354353,
        1.472019840881799,
        1.0669045948725946,
        0.10989000925591758,
        0.8622943013966093,
        -0.3179750936796527,
        -1.6415163537956414,
        -0.4217550834917948,
        0.014494484110458642,
        1.1661369771863608,
        1.0437897659788091,
        -1.0665184184836007,
        -0.14874773785059758,
        0.9689237620203205,
        0.8097415800809692,
        -0.871517204054682,
        -0.1853067761006736,
        -0.7043715604493282,
        0.8111903381797873,
        -1.1069435927352627,
        -0.8151234523780839,
        1.2748789253225759,
        1.0039134063454729,
        -1.3391628242026188,
        -0.09770126051448497,
        -1.018445057382053,
        1.1120215391273742,
        -0.678240045803445,
        0.5674805458053185,
        1.030217875645624,
        -1.1679623937582393,
        0.941060376317066,
        -0.8330900122713183,
        -0.5291220081816663,
        1.4421157659438362,
        -0.40786638185597274,
        1.4977783630116466
      ],
      [
        0.7992854029566263,
        0.4534264268919168,
        -1.1085013367985619,
        0.5209882459519476,
        -1.4087405247750941,
        -0.821801063262191,
        -1.0599176514866613,
        0.4713257079215441,
        -1.8298797245121479,
        0.6548388673648353,
        1.0774100653571332,
        1.0473028940610651,
        -0.09392241692171664,
        0.25766356679380614,
        1.1479734093112663,
        -0.08676976292654479,
        -0.9505042573919557,
        -0.5046232931939199,
        -0.6011995401693214,
        0.7153864967088668,
        0.019620510114371912,
        -1.3908109583776005,
        0.7064426429892036,
        -0.06067498563753339,
        0.2309623832443054,
        -0.7408216612340146,
        -0.6973684092416184,
        -0.7899252917437407,
        -0.9728969956509164,
        0.6631025416853368,
        -0.4946061503664217,
        1.0665827772431493,
        1.7168453562517116,
        -0.061798671370303884,
        0.129561843666106,
        0.011956507410420912,
        0.7599141491520098,
        1.6860931446703114,
        0.1534487410107667,
        1.6075157175470178,
        1.7747046472306445,
        -1.1184889585149247
      ],
      [
        -2.004862565616472,
        -0.5513643620276072,
        -1.8894531955117833,
        0.06870568620777352,
        0.6309536119229485,
        -0.6552372944336652,
        -0.4484174046359362,
        0.7899300890161225,
        -0.60789414648148,
        -1.8328015224303686,
        0.4983087426711675,
        -0.7442263307871206,
        0.008388366428768394,
        -0.28990205807152,
        1.8095816182672466,
        -0.390533784426385,
        0.8289030883837909,
        1.0809786825590628,
        -0.41430346740460194,
        0.3058422530331183,
        -1.281703863992611,
        0.5926780986295654,
        1.468517600831503,
        -0.6591959811939124,
        1.526582852411199,
        -0.5654489625137488,
        -0.28563361698336426,
        -0.7794442194792875,
        0.24287678204437796,
        1.5207124688815432,
        -0.36761634554217876,
        1.0284232521239822,
        1.2895170449165205,
        -0.7115308606797175,
        -1.101150670602848,
        1.3737452559753776,
        0.9003101723111495,
        0.9039154497794292,
        -0.13936491337349782,
        1.1314465780767624,
        -1.2258812543479585,
        0.2932696784418531
      ],
      [
        1.5782930213089608,
        -0.10574459815732193,
        1.3143345075947532,
        0.4864661242710257,
        -0.16694321227220932,
        0.25449171659082076,
        -0.9410894841870455,
        0.16879679977694548,
        -0.5691323201648306,
        -1.2978811281084632,
        -0.5875012378817844,
        -0.8236307597605931,
        0.8775551654463133,
        -1.2897404795542973,
        0.0001834879760713413,
        -1.6398224075442802,
        -1.4747326664574043,
        0.8092073172331209,
        -0.8112840419409574,
        -0.07345118569377806,
        1.2058179126907065,
        -0.16740075476491026,
        -1.2748636722852302,
        -0.46083085594215706,
        0.6884615408277964,
        -0.391488356909128,
        -1.1193139342048597,
        0.4094647440937595,
        -1.2314559694934537,
        -0.09563836422757904,
        -1.056532921867897,
        -1.2048492086523621,
        0.8477771992681336,
        1.4641346083692988,
        0.00916775814112732,
        -0.0745199002069889,
        0.8935173739973894,
        -0.037087570343365586,
        0.19632162955076013,
        -0.584856947632412,
        -0.5101583710945939,
        -1.2772439850222261
      ],
      [
        -1.4639983486480814,
        -0.027225353093812785,
        -1.153545666852999,
        -0.4767106759679232,
        -0.8572201094722144,
        0.5445906511479208,
        -0.8206363059340025,
        0.9818101554182149,
        -0.20607914750721126,
        -0.26440649841166225,
        -0.9748742740091876,
        0.883202127808645,
        0.05771233608372076,
        -1.4269193226390289,
        -0.5053676601289272,
        0.6053352254267929,
        -0.13214074507767165,
        -0.2991912836104759,
        0.8577019557477509,
        -0.4791766824509703,
        -1.2733197711652255,
        1.4064405268794298,
        -1.3903992371509541,
        1.392095450158385,
        -0.4142663603970272,
        0.961730976834478,
        -0.09201892320201506,
        -0.2060440773688769,
        1.1862689320861777,
        1.1358950329654525,
        0.19147912290076438,
        -0.36702248046787284,
        -0.5769944676660846,
        1.5152530035109713,
        -0.4649877268867755,
        -0.41807286011927214,
        0.7517795778430371,
        -1.0424165389640283,
        0.5585067731121302,
        -0.80353182126346,
        0.35076112936749765,
        -0.9078840238931528
      ],
      [
        -0.4800771110299138,
        1.1121871957370046,
        1.2425763859273522,
        1.2420839416375098,
        -0.028343523647996784,
        0.5644127506431035,
        0.5774344737031292,
        -0.9556647557270311,
        0.867527546993651,
        0.48808725392336627,
        -1.3780003368292026,
        1.3145516516614666,
        -0.9154865862554431,
        0.7064168472269974,
        -0.443598718236439,
        -0.4250455513579038,
        -0.40014563610477855,
        -0.4101636356085953,
        -0.47394855512452083,
        -1.1601842453871412,
        -0.6952936266096382,
        -0.806843141332661,
        0.35851849536181357,
        -0.4623634454784373,
        -0.28757106125922177,
        -1.165098204621283,
        -0.9165224187321661,
        1.0874557673280132,
        -0.8988622113896794,
        1.0341352593676174,
        0.6054343199022576,
        -1.1658726238574235,
        -0.5420884908141103,
        0.5245810853154105,
        -0.8740016397010484,
        -0.6812764216160905,
        -0.2699971363236457,
        1.205127575901592,
        0.4809478504322872,
        -0.8610334966975063,
        0.5524216548004652,
        0.37436418812595434
      ],
      [
        -0.6912933201341213,
        -1.2274852692119766,
        0.5494369827335716,
        1.2466899766592958,
        0.36689708669641574,
        1.1737069532569908,
        -0.8276575768227102,
        -0.7340164251210802,
        1.022143345505223,
        0.5898829404829407,
        -0.05878735886804874,
        0.44362873272103703,
        0.21912460726181776,
        -1.019742474699007,
        0.32594659523768127,
        0.29176548696533455,
        -1.5104385089032673,
        1.0712348884132668,
        -1.3606661038593861,
        -1.0320559787872325,
        0.025213920495154314,
        -1.8051607981149527,
        1.4994936409342734,
        0.37090755513527285,
        -0.9317109455213813,
        -0.18233489819727375,
        -0.3158670645696136,
        1.4310687293470077,
        -1.3947435947468543,
        -0.1251264272273445,
        1.2799822098545335,
        -0.7728267554338526,
        1.0506642481924162,
        -1.4228467143180665,
        -0.5733441990363556,
        -0.7988087355398128,
        0.2340074917366572,
        0.016624723801356184,
        1.0367275254676636,
        1.51941521563265,
        -0.8602824462747054,
        -0.8023604682037382
      ],
      [
        0.9274270834085838,
        -1.452504184106365,
        -0.08975405810945374,
        0.9807277481481651,
        -1.2766847138263986,
        1.5786321146892697,
        0.6887088592472745,
        -1.0459487164277865,
        0.1801632910901619,
        0.8112999757213996,
        0.8096363414765015,
        0.7574827245085962,
        -0.5274626895775291,
        1.1423398481446654,
        -1.3452627204770862,
        0.6255179173979334,
        -0.05605391945322084,
        0.34059375154454397,
        1.0438961486531415,
        -1.52555166527749,
        -1.5140873575576195,
        -0.6279498010084729,
        0.03657256754786993,
        0.6704097050309883,
        0.8550800007602243,
        1.4069957241518847,
        0.7742152842564397,
        1.225973004293482,
        1.1904622415661001,
        0.8906706349138063,
        -0.6909006269505091,
        1.3434183904997439,
        -0.5855865634130137,
        1.3370692678309959,
        0.4073247176485021,
        -0.19428177383859158,
        -0.3351022412933813,
        0.19401948280513712,
        -0.449753068966458,
        0.354851882442783,
        0.1148206207915074,
        -0.6660906527164302
      ],
      [
        0.9363168811334628,
        0.3635957456417496,
        -1.0624324611685922,
        -1.227931621839078,
        -0.23949593670763492,
        0.27366712897183415,
        -0.7207205500217823,
        -0.26607405909147147,
        -1.3431841020616524,
        -1.305902453319763,
        1.0386352006757626,
        1.5882114093144661,
        -0.03311361798986011,
        1.1849681015895843,
        -1.2597436221863825,
        -1.1698581720516588,
        -1.5156234169338247,
        -0.017562495889440737,
        -0.5107126544890371,
        -0.8781136144235698,
        1.1621470668891303,
        0.8969275088546989,
        -1.3538992581575986,
        0.40731431322959344,
        0.9644958874827482,
        -1.0557268648357043,
        0.3098775574426183,
        1.1764552436795241,
        -1.2988605796773858,
        -0.5084255962106797,
        0.41765841719345537,
        0.89183768957955,
        -0.15430549909190144,
        -1.2378843234024144,
        1.1979358266841138,
        0.6196220060747545,
        -0.23221858928406452,
        1.6815964060867217,
        0.9857368338935009,
        -1.2345220393488243,
        1.2961714335267494,
        -0.01280950398105282
      ],
      [
        0.4331475158381502,
        1.1243065858125838,
        -0.8187564521202485,
        0.7237807646968696,
        0.7322746112379814,
        -0.9956961415726054,
        -0.5268802539627927,
        1.27374102503487,
        -0.4357058779835744,
        0.95514556799539,
        0.6098789619444833,
        -1.4591619783146825,
        -1.3723175349591636,
        -0.34510461604877835,
        -1.201792749071625,
        -0.7079248407986548,
        1.2012521889491479,
        1.170496840414312,
        -0.46225833624041673,
        -1.4648985569257056,
        -1.431454547186449,
        -0.6690458953654179,
        -1.3111973363041898,
        1.059266870421284,
        -0.38648260005351703,
        0.41091370048966314,
        -0.1957878288607533,
        1.4350543218921894,
        1.176920307661462,
        -1.3463069445687474,
        0.1343658056763054,
        -0.5064804733178212,
        -1.0342339647673136,
        0.2130111247114935,
        -1.5142647384979306,
        -0.05793322420520852,
        -1.2374021527195171,
        1.3923791120328595,
        -0.4348118802080728,
        -0.8369146051153784,
        -0.060029039844695764,
        -0.24781450040661293
      ],
      [
        -0.4999296162896355,
        0.5423759890415829,
        -0.05105147665440496,
        -0.49821706075691197,
        -0.3199692961589276,
        -0.031583619138015905,
        -0.3276268286982766,
        -1.2126540405891124,
        0.37619608913095226,
        -1.0515281953920215,
        -0.35340689103009415,
        -0.8800952134721713,
        0.8726907997654237,
        0.43965395790579775,
        1.5595142483129083,
        -1.3854749322373123,
        0.2526566712946148,
        -1.4757690192868544,
        -0.3320008721265745,
        -0.8374027296541577,
        -1.117232834237798,
        -0.6084692464801817,
        0.5711746347051311,
        0.24928650249658968,
        -0.5253298140019359,
        0.8620835747287631,
        -0.18432524055832605,
        -0.31111191355483053,
        0.26791473536947313,
        0.6022382183551118,
        -1.141363247623559,
        -1.2246940793247612,
        -1.3036154389769636,
        -0.04809966042487078,
        0.06391852631475825,
        -0.6091881447399409,
        1.0718245668900415,
        -0.3498635466550684,
        -0.6447358262041742,
        -0.009154259979625101,
        1.3204299211204096,
        0.2883996408696589
      ],
      [
        0.26918480685844903,
        1.0552472156789756,
        1.3406343324049383,
        0.8771711597868803,
        1.063752846644572,
        0.6421971709408427,
        -0.24891679245997442,
        0.6535847823726271,
        1.378031984644634,
        0.045709626826612226,
        -0.19280360249346756,
        -0.49996349011879365,
        -1.1425052385389618,
        -0.2971038045182329,
        0.9806538186214786,
        0.5128364983801219,
        -0.28370323834479383,
        -0.2341010735192911,
        -0.2751153858369183,
        0.21652857829734304,
        0.7719387294618748,
        0.6057725972894378,
        0.2984355302328166,
        -0.7252519662755301,
        -0.3149014839178779,
        -0.43672327998523697,
        -0.02330052109406815,
        -0.0964101975821136,
        -1.0596247749146843,
        1.1692189269444113,
        0.25343409093661895,
        -0.003718919482995256,
        0.47385286758699524,
        0.6412178460274195,
        0.9473020411177857,
        -0.6480699290591142,
        0.293950127363838,
        0.13088236614932428,
        0.9009558647741147,
        1.429046278063641,
        -0.01816270475068483,
        1.5582623462488359
      ],
      [
        0.849699380188268,
        -0.6311920666518799,
        -0.6877876386550469,
        -0.04095728222306478,
        0.42550327757560114,
        -0.49270769290806365,
        -1.455346756192244,
        -0.1354368703860294,
        -0.34951930586235164,
        0.4996350460205766,
        -0.22240253139973207,
        -1.1189251965652514,
        -0.11345647334762468,
        -0.28714908692655067,
        -0.9213725566438011,
        -0.9362966023091418,
        -1.410758356461218,
        1.3578200436113625,
        0.3178455783251125,
        1.0511716101046433,
        -1.063498792538957,
        0.7336840446292757,
        1.2738378901866838,
        -0.19919648651019586,
        -0.4769183838977678,
        -1.35191678132564,
        0.03634999564914829,
        -1.3895272600409136,
        0.8718895135780836,
        0.5416435098515059,
        -1.513049695606559,
        0.38643669440879425,
        -0.5019561741013548,
        -1.3494731397989599,
        -0.9996403392479899,
        -0.7895905863827977,
        -0.9633764578010012,
        -1.3140025425785036,
        0.8209486325750085,
        1.223219729889094,
        -1.1778738415182644,
        -1.5290357419642508
      ],
      [
        -1.0612860929457821,
        -0.8502539417568025,
        0.4746765757984042,
        0.5691177379560982,
        -0.45666062054024525,
        1.5674838059840026,
        1.4018246920851647,
        -1.1019550138221095,
        -0.7155566643953332,
        1.2469375528836006,
        0.07441821024108661,
        -0.7525563912847602,
        1.0021252421759657,
        -1.0608019052657431,
        -0.7697516894343804,
        -1.4909247507467072,
        1.3529419800539533,
        -1.3327531747859551,
        0.9575599421278116,
        0.3375132809990411,
        0.0013041101213698524,
        -1.063517609552726,
        -0.889603770717613,
        -1.232988735760175,
        0.7743105087096922,
        0.08369413614379191,
        0.251494171568636,
        -0.2815292652074816,
        -1.0014157542499262,
        -0.05854163325245085,
        -0.8573938025626486,
        1.4894065419192735,
        0.48130778048746603,
        0.05036981522442797,
        0.11758334194229736,
        -1.5487054403620546,
        0.7271669123947182,
        -0.1145604675106441,
        -1.656469168762673,
        0.6141845138689669,
        -0.3035721990012865,
        1.069387044245575
      ],
      [
        0.5678957272034124,
        0.32230074839426986,
        1.4280449919611762,
        -1.2741304767871795,
        1.1275466001690262,
        -1.2919612694726712,
        0.9565543434950694,
        -1.3016793947080247,
        1.1797763091325122,
        -1.7266548234984205,
        0.5140759324457908,
        -0.043271658325701706,
        1.1073235533237211,
        -0.053750689986910946,
        -0.17333136626108947,
        0.6914542734033139,
        -1.6129835217499215,
        1.005593851322023,
        -1.0634101366921989,
        -0.9424761880672016,
        -0.4193988946350163,
        0.4957447842584179,
        0.8911051659128378,
        1.130670664595806,
        -1.0500230464465556,
        0.8251690178998431,
        -1.1381665768134552,
        -0.6437934831218683,
        1.2055748593991078,
        -1.0715831141398902,
        0.29226802980921357,
        -0.7412872300531405,
        -1.7161929187834715,
        -1.3529346523335963,
        -0.0175637248178668,
        0.31950567561694393,
        1.4089925541016977,
        -1.4046909301143826,
        -1.5048207193902805,
        0.793770971350163,
        -1.8730183064077468,
        -0.897329718758613
      ],
      [
        0.33594644016761616,
        -0.6603786451797128,
        -0.13068287718499277,
        -0.5952010916998898,
        -0.677965895748579,
        -1.459499848426627,
        -0.5502086012747368,
        -0.4089386717539465,
        -0.9077036437494137,
        -1.4946844149940017,
        -0.9725178813237355,
        0.33737589940514456,
        -1.343114483163231,
        0.31786019289016465,
        -0.11224047295878084,
        1.1063355609677532,
        -0.049932399386826073,
        -0.6037841296795445,
        0.00947747207588175,
        -0.741303239617476,
        -1.274268016719804,
        -0.864898360683607,
        -1.1094754029654523,
        -1.3976117282155003,
        -0.927842859987705,
        -0.7335769643254249,
        0.4389207642156463,
        1.640535101223278,
        1.4798652585827912,
        -1.0933191096463277,
        -0.25861843090722586,
        -1.130907165100011,
        1.1343418521257036,
        1.3620167064603323,
        1.3817512296285122,
        0.2565107633603962,
        1.673244395852943,
        0.08125525147354103,
        0.8415611367228414,
        1.1517925697042952,
        -0.6622769352099681,
        -0.29457403414855354
      ],
      [
        -1.7057417824020649,
        -0.37389315584566285,
        -0.9844884517438816,
        -0.8636759489843328,
        -0.792246366121048,
        -1.2713407755749442,
        -0.16705711006857366,
        0.8347099071421301,
        -0.4581015912048835,
        1.5009192392822026,
        -1.248223813421247,
        -0.10437965258365257,
        0.17515887414836634,
        0.7953043389017165,
        0.9825079487679295,
        1.2187949490994832,
        0.07707287350317198,
        -0.6415318012766407,
        -0.6215055974993628,
        0.7981037285758945,
        0.8375087087384353,
        0.983714307546307,
        1.1757134049426587,
        0.19310991549477668,
        1.236888620420547,
        -1.3282958215333622,
        -0.7144683482395595,
        1.2885864340638664,
        0.3113806603263956,
        -0.8190604637171226,
        0.8189636665546481,
        0.5199834453705497,
        1.4971110683060909,
        -1.2855692285568923,
        -1.1056518253272807,
        0.2360755431220062,
        -0.19957020629741332,
        1.080132133096153,
        -0.7761879360965623,
        0.8814426648807231,
        1.3717880589692346,
        1.487420328248374
      ],
      [
        -0.9064983674416256,
        -1.4148753314703808,
        0.9884330040250179,
        0.8192163578469578,
        1.0493828731543247,
        1.1500956743159272,
        -1.2558529597251675,
        -0.8612991924505041,
        0.002570780603832207,
        -1.0826154925794031,
        0.8226846953479647,
        -0.40068586177937593,
        1.4076060045021923,
        0.7014579673515356,
        1.1896348270868198,
        0.8622645741135588,
        0.5214378533847507,
        -0.48577978023359697,
        1.0032444168620578,
        1.005768076658247,
        -0.5804065850404279,
        -0.5155099380914033,
        0.39937126026196296,
        -0.7500030558159034,
        -0.5806875475300675,
        1.3515390059785626,
        -0.8332952515516372,
        -0.17478675159034396,
        0.008917720528584186,
        -1.1964839275412071,
        0.05862467281325021,
        1.271276681057042,
        -0.1340430307635822,
        -1.3789295066235425,
        -0.12141878663919937,
        -0.6883913578884939,
        -0.8119554443744438,
        -0.7786632922236987,
        -0.07364237442379205,
        0.5137021222589381,
        0.040316817705499615,
        -1.1593518919293644
      ],
      [
        -0.5033821645537321,
        -1.4045272334119197,
        -0.10995574105753379,
        0.8314023496342127,
        1.2624442513376888,
        -1.0821329134728974,
        -1.4610831572078362,
        0.3915458303153824,
        -0.008377727393358228,
        1.0769892836886297,
        -1.1316516823492515,
        -1.6041203658889958,
        -1.0925852247142445,
        0.9433786415955729,
        1.2467710929744769,
        -1.3288209786452834,
        1.308428256559646,
        -0.26147362340368513,
        1.2130525586676448,
        0.3335092094874778,
        -0.46007800335809257,
        -1.230619041347892,
        -1.5400938757343132,
        0.910561728476601,
        -0.7340228730377771,
        -0.7499095959202533,
        -0.9014922963102329,
        -0.31210191920319863,
        0.4019262869838426,
        1.1769932822532883,
        0.15526557493071477,
        1.379607185323937,
        0.03571795001234964,
        -1.1286343455712275,
        -0.34298285517158117,
        -1.0065118783391542,
        -0.6558699400234305,
        -0.8392891042905569,
        0.605175462118897,
        -1.4403738798989763,
        0.8906222495617087,
        -0.3930858570995797
      ],
      [
        -1.4165278540076682,
        -0.5474346201956131,
        -1.0801462200605263,
        -0.667944969195956,
        -0.376929802419715,
        1.3331504026658507,
        1.4994268423103299,
        -0.5332617024906425,
        -1.3978144162685635,
        1.0492109881586842,
        0.7313637196680532,
        -0.4265775909984088,
        -1.4086639672262824,
        0.8474797506694307,
        1.3974515067260158,
        0.38268100969208113,
        -1.1456904330867417,
        -0.3197652574085499,
        0.6980718847468325,
        0.7582685923319284,
        -0.08603479059676297,
        0.26559266219647865,
        0.19221170605225815,
        0.27809553481395227,
        -0.5250953833671705,
        0.3924956485105558,
        1.352975344044744,
        0.3654563179183086,
        -0.9286244992385937,
        0.3987891184966557,
        0.2683507922481059,
        -0.7000296713341908,
        -1.1228833845291823,
        1.1609078983460215,
        0.4618495844780668,
        -0.06071552739238739,
        -0.5529126524124893,
        0.15010577517982615,
        -0.6712876555844555,
        1.2755468361554696,
        1.0265136605055887,
        1.1537480087237257
      ],
      [
        -1.147778738844938,
        0.12888553274397196,
        -0.679619727771607,
        -0.2873204052523425,
        0.28472297269121105,
        1.0567101308162261,
        0.27726621431344634,
        0.5275149285455148,
        -0.7875159678509875,
        1.0232168965984236,
        0.45124944323471644,
        -0.6092550470790499,
        -1.409712505297213,
        1.4643290792491654,
        0.41991187676445846,
        0.9754637703614473,
        -0.5673057089306827,
        -1.4647811664166561,
        0.7290579573987908,
        -0.14652241359932622,
        -0.7427037146908666,
        1.329962427451737,
        -1.2216199701642452,
        0.6252623710605759,
        -1.339906833068512,
        0.24770969343501267,
        1.3136704116212874,
        -1.2863796973764041,
        -0.13792221849004935,
        -0.3272584949294015,
        -0.23731200183472392,
        -0.825632914927504,
        -1.0316947447150413,
        -0.9296360233494559,
        1.5895428463052501,
        0.03200244528588226,
        -0.22819706586620297,
        0.2301638178251188,
        1.5125867225797578,
        0.6086728899333024,
        -0.4484473079911464,
        1.301809176509263
      ],
      [
        -0.8042655176697288,
        -0.6203288921233323,
        0.2861064894005893,
        -0.2899762697695817,
        0.11723824206745383,
        1.4320384082263704,
        -1.3421807499718672,
        -1.1863181772903963,
        0.9939386714992223,
        -0.5914398457195519,
        0.19777202487613452,
        1.3633564963558853,
        1.0179411768738706,
        0.7615834830436101,
        0.7502369968213278,
        0.42420993260966544,
        -0.5333913437460132,
        -0.9587625575658244,
        0.8133992487533206,
        -0.21055296798059145,
        1.1719362695210527,
        -0.9212129487078665,
        0.2689923319075163,
        1.1741610018873074,
        0.9897423176417932,
        -1.046293933337081,
        1.5185980318165444,
        0.7509444139217396,
        0.9169895126914219,
        -0.2149025967374775,
        0.31903085308365847,
        0.9031295200865666,
        -0.9773774265582196,
        -1.0700147698850841,
        0.7612269768054158,
        0.026897853915246427,
        1.4871116840525802,
        -1.1958445566373606,
        -0.9663502426197702,
        1.1287749342210627,
        0.8746882992348494,
        -0.6730263108113388
      ],
      [
        0.11056131481242137,
        -0.541341062027309,
        -1.2395229811249489,
        0.7624024510041854,
        0.09959798002558964,
        1.1843210487047413,
        -0.5242736584904552,
        -0.586023533454343,
        0.09293963335785037,
        0.7423913084093301,
        0.8869178811943425,
        0.8175850857526755,
        -0.825673318956567,
        -0.5300556905819158,
        0.45040118888250935,
        -1.2152726070093813,
        -0.6976628787482079,
        -1.002665328358656,
        -1.1449926611059256,
        -0.8396433829435407,
        -0.5746720824366758,
        0.9561208285721253,
        -0.19562244507334847,
        1.4319030698711717,
        -1.003741986781565,
        0.1459889354148929,
        0.20330964271530766,
        -0.9823005571904753,
        -1.1784841083420818,
        1.0169190801984904,
        -0.6719519083678586,
        1.1656567703979315,
        -1.0903002457394269,
        -1.4689431762434897,
        -0.8345497289596902,
        1.0357955563884123,
        -1.3848017942573767,
        0.005355772601311637,
        0.9565418033092279,
        0.13879550324655934,
        -1.2483035533891034,
        0.5875207119227267
      ],
      [
        -0.251540206863789,
        -0.9687932736685478,
        1.3515023284749121,
        0.19178731341851787,
        0.9364343812414195,
        -0.26859036494899935,
        0.5585740854472147,
        0.11082367658626024,
        0.1171724298416432,
        1.7396700894029775,
        -1.446167706713457,
        0.8161920644626126,
        0.5189033420146902,
        1.5443195492137713,
        -1.1654620759860963,
        1.11448023475614,
        -0.5269994536513118,
        -1.0807367404149366,
        -0.23816412518953342,
        1.41989159990033,
        0.6310711300493634,
        -0.06999171289398312,
        -1.4300633273063512,
        0.6806468214340385,
        -0.4605921655573197,
        -0.3727818593325371,
        -0.05190064666574399,
        -0.49000881499275706,
        1.040036832217138,
        0.26257784170954435,
        0.521648901626926,
        -0.18599875710702565,
        -0.5425454225207522,
        0.17914590011171816,
        0.4932975247226585,
        -1.1818594863567602,
        -0.1127102598130144,
        1.4332053002466814,
        0.4572532932446471,
        1.0987085217958132,
        -0.6302807448922338,
        0.36558185349760797
      ],
      [
        -0.6493125704012142,
        1.0662490372991877,
        0.03662864242330583,
        1.2690801448446267,
        -0.7269641957957692,
        -0.798533770532261,
        0.40435927002070426,
        -0.4856797502027749,
        0.5589671363851987,
        0.37112960317170385,
        0.3906585377920922,
        1.4761742267482214,
        -0.8617395783378707,
        -0.43086177909033463,
        0.750687738709043,
        1.3767845815299022,
        -1.1352826225590498,
        1.6192529121055044,
        -1.0149889300716106,
        -0.13751823052668716,
        1.4449841267121455,
        -0.19622929739429296,
        -0.3055924458068587,
        0.6591458994170963,
        0.559531225424251,
        -0.24516242931633658,
        0.6312666309094006,
        0.7723915781426333,
        1.2131204777736164,
        -1.404758418095363,
        -1.111315400015789,
        1.1094452573394455,
        -0.6845550213703847,
        0.9894855052080357,
        -0.6587886186051435,
        1.6682475486048636,
        1.2657236068835502,
        -0.5961578741371206,
        -0.08387762111789471,
        1.047821213450931,
        0.4980496800099624,
        -0.3757566864456664
      ],
      [
        1.0819701660170002,
        0.22117574067747348,
        -1.730989583896821,
        -1.356254559787774,
        -0.31672877498204416,
        0.3788825849441819,
        1.305194111308275,
        -1.4188033246417031,
        -0.1714677168222053,
        0.8936635438037556,
        0.14464118068912368,
        -0.8634561776057442,
        0.09159520043295995,
        1.124521724342828,
        0.2493376323244148,
        0.5381690432702091,
        0.8936286364923538,
        -0.7101319145307293,
        -0.4200609429261043,
        0.5622756143351832,
        -1.4267352915523719,
        1.0324688802880675,
        -0.7713109674138166,
        1.4469979882046549,
        -0.08511420708759274,
        -0.15774958477715909,
        -1.3728886450424167,
        0.7042726785424366,
        -0.8609364916861423,
        0.5704859170364811,
        0.5468876141728187,
        -1.4861380482545874,
        -0.8535252556042473,
        -0.27671809587091845,
        1.143220241736954,
        0.9246609572481894,
        1.275585081700135,
        -0.19718744877025993,
        -1.432530828205516,
        -1.2829055923327426,
        1.1878437394119588,
        -1.2109132146395143
      ],
      [
        0.2450842525468108,
        -0.5015203028998224,
        1.0944172703631847,
        -0.5434764950363035,
        -1.1955538392968215,
        0.8037842629885659,
        -1.174010500612254,
        -1.1510421235258037,
        0.9189169121985942,
        1.2410069121647576,
        1.0951976160268446,
        -0.6369188112401055,
        -0.8797234357703184,
        0.27772841914346036,
        1.0644684761123278,
        -0.4534159755828253,
        0.8967109617512917,
        0.5808504704377658,
        1.062817350232726,
        -0.7822248357650774,
        -0.40957630505710435,
        -0.7524663535901981,
        -0.33884739192699814,
        1.239573738782072,
        0.8056860687511118,
        -0.7670999517519591,
        -1.0697336756819653,
        -1.2377880687842355,
        -1.1237065771493253,
        -0.8723013188146064,
        -1.3212647871519156,
        -0.8401359174271247,
        -0.9609972705703376,
        0.28641372784032987,
        -0.6636869011699168,
        0.7695545598072784,
        0.053641280654390694,
        0.059053510483749135,
        -1.5331355491268182,
        -0.5428606661950853,
        0.5304115312375377,
        0.559328280370289
      ],
      [
        -1.9490260138404327,
        -1.212393243764427,
        -1.5263898237666318,
        0.8070750996434509,
        -2.0139504561839825,
        -1.8908596317726387,
        -0.8643684455839973,
        -0.540022906033485,
        0.7154632319699165,
        -2.9984931500964627,
        -1.0866842429843244,
        -1.8320543528095081,
        1.4553593186671643,
        0.47701674645539716,
        1.7767085624989325,
        1.1468147675878053,
        0.39153520252925833,
        0.761703493945953,
        1.1184019004190986,
        0.4991395010064687,
        -1.169238870362676,
        0.9757832529065261,
        1.061955599795076,
        2.108933576319417,
        -0.07043619977423918,
        1.2463355047820426,
        -0.05919720156414788,
        -1.109608307491064,
        0.6789518532023312,
        -0.3042666186126814,
        -0.6153393958156601,
        1.4951380334318023,
        0.05995193000185916,
        0.21965324688115243,
        -0.2944692493031818,
        -1.5493363032264853,
        -0.3527708147902753,
        0.7921373669808991,
        0.9648442085795347,
        -1.5191321263770012,
        1.6020657515009262,
        -2.0764717339786642
      ],
      [
        -0.8714074523547464,
        0.909734737688799,
        -1.0351915845617452,
        0.37784911996353904,
        0.13169209227781858,
        1.1697489374135155,
        1.4653747364459944,
        1.1607677752024457,
        -1.0507646946464613,
        0.11383624202623811,
        -0.4859360904828697,
        0.48386156649195294,
        -1.4544790218128563,
        -0.67150335220871,
        -0.8054399088180971,
        1.2868870475311698,
        -0.19151510627880908,
        0.771281406499531,
        -0.1528294211271326,
        -0.29015798122800257,
        -1.2293087578077602,
        1.3906926213314263,
        0.4095934514651123,
        0.35207270907632904,
        -1.1033531273262136,
        -0.02398378875025665,
        -0.5036817385005606,
        0.04177235985034331,
        -0.6932756938240804,
        -0.8149084629746992,
        0.23661870775553606,
        -0.1863752943604014,
        -0.8989802855330041,
        -1.285463083713622,
        0.07616301786486045,
        -1.1786509820612328,
        -0.8588682711028529,
        -0.4949841026125982,
        1.0088832443321738,
        -1.1996063548611315,
        -0.9552203700976768,
        0.30903391998593543
      ],
      [
        -1.3905523972186988,
        -1.1996580295725647,
        1.0412789406353442,
        -0.666711115206283,
        1.5251126433011397,
        0.6158091387872863,
        0.1794681002976066,
        0.31494556382846123,
        -0.9733725735610238,
        -0.4751727070858538,
        -0.26111287816607137,
        0.9133186933127514,
        0.8299093143981868,
        -0.7613955103635236,
        1.3892788705546755,
        0.3568758168891932,
        -0.011737938625777858,
        -0.05906364023767464,
        0.29616702037269993,
        -0.9397369212042742,
        0.010969158420330092,
        -0.27078604354572094,
        -0.23206246799192706,
        -0.4141842306306329,
        -1.4565746985981223,
        0.6743500594933525,
        0.6350909056614366,
        0.5088428509491589,
        1.0782478357861287,
        1.359972061770375,
        -1.234736898085932,
        1.390792815862841,
        -0.36228047597920665,
        -0.014717637854319348,
        -0.29442308946071566,
        1.163382097400771,
        -1.7101261979746245,
        1.055488834594236,
        -1.0052703097656959,
        -1.5084793983520688,
        -0.8562842146559556,
        0.9440204917556169
      ],
      [
        -0.15088194672165325,
        -0.026063864586254426,
        -0.8349445288904663,
        -1.2252316471924987,
        -2.204109564975633,
        -0.5229912620811104,
        -2.1950091632629114,
        0.07017749539491837,
        -0.35260276781822086,
        -2.008744418022228,
        0.8008828753697725,
        -1.1575129968292073,
        -0.6166700447928514,
        1.4843221060859026,
        -0.4283089929663337,
        0.30011749887962647,
        0.6336357678351607,
        1.2773389962808397,
        -0.19329716129557045,
        1.3309944449865359,
        -0.5161773421568823,
        1.4079118867143303,
        1.116349552563366,
        0.20789666250323915,
        -0.34931431438861815,
        -0.833404439850089,
        0.5512000646939376,
        0.767207006380032,
        0.27350470345468925,
        0.6289420404125368,
        0.9064257254146321,
        1.4571762345033528,
        1.590153958101186,
        0.05072784532556667,
        0.05788162070303191,
        -0.28732100199871846,
        1.1823327382951119,
        0.9110557228471576,
        -0.5555308701012991,
        1.3075000548886606,
        1.21772966544623,
        1.3824893363827895
      ],
      [
        -0.19428818393151642,
        0.6162282979635055,
        -0.40563315807534617,
        1.3486349376093238,
        -1.6462221500763672,
        -1.2345066500452897,
        -0.03952995545218513,
        -1.64054795278431,
        -0.23720765357195028,
        -0.3899169141471453,
        -1.3834557834516839,
        0.37277644854821596,
        -1.451643698160056,
        -1.2456494200201191,
        -0.04914873924389344,
        -1.5247984992844772,
        -0.2761474990524355,
        -0.9287553246738571,
        1.1410503431870669,
        1.095903970691242,
        -0.4504449298012848,
        0.5154264923723556,
        0.24965825738648903,
        -0.00998303287973032,
        -0.7403636268187475,
        1.1834529826854316,
        0.851128781650288,
        1.405481724848221,
        0.9229455054553108,
        -0.22014068469158474,
        0.25393722411226605,
        -0.9425860493880325,
        -0.2994919584318788,
        0.5845668159371276,
        -0.35067209052611537,
        0.47155733324881083,
        0.789799571088722,
        -1.1319055022329843,
        0.906801337615855,
        0.23360800619892474,
        0.7966508517007707,
        -1.3311725342185141
      ],
      [
        0.40322524267455867,
        0.80280929779616,
        -1.3586058157274379,
        1.3362240549695616,
        1.1510583987460425,
        -0.31121309577692163,
        0.06603752498425829,
        1.2066489886553462,
        -0.5834234072990506,
        -0.5972672004028605,
        -0.16453655621987665,
        -1.013129489740614,
        0.5819650175957153,
        -1.3258586076959045,
        -0.9560050976005745,
        -1.2392597498842417,
        -0.28417443836158945,
        1.1573760044976524,
        1.274462112082512,
        1.1932674738639215,
        -0.09203318742760036,
        0.5069928804814763,
        0.38714657557863086,
        0.5798956878466495,
        0.3533228544039577,
        0.6232461069698637,
        -0.4035777447726128,
        1.2204081774082165,
        0.749442850339631,
        0.39130613326988484,
        -0.08927269484302025,
        -0.6483593167069805,
        1.093925846914871,
        -0.4569119786526583,
        -0.3000819679674264,
        0.011340277122769447,
        0.6650799967268963,
        -1.1144262966713074,
        -0.25837079395552964,
        -0.7437682045058405,
        1.405176647472967,
        -0.4720399819317785
      ],
      [
        1.9391529488428791,
        -1.0213629312559624,
        0.199476234977185,
        0.9891919820897925,
        0.6137894926916743,
        -1.628226068790519,
        0.5295513981709037,
        0.968215362855845,
        -0.06593980513333098,
        -0.05038639001206602,
        -0.8431413929453369,
        -0.059464318564198496,
        -1.3164138579817566,
        1.1652102695816113,
        -1.012773566760673,
        -0.7549317228862149,
        -1.2377290328459265,
        0.0413280015926978,
        -0.018723583991336303,
        1.319350615539333,
        -0.7017312297044448,
        0.7499909862001564,
        -1.4588105286630562,
        0.21076765948833592,
        -1.1412906104614349,
        0.13904421197318392,
        0.6826000161356063,
        0.16555556052595172,
        0.4480245411775632,
        0.1374398952853512,
        0.1384259615030072,
        -1.1358592382853503,
        0.22553784624327264,
        -1.3499059924640062,
        1.593391574981654,
        0.9558660516456912,
        1.7215611957110741,
        -0.21767036704973353,
        0.31868215592959503,
        -0.14040922987343216,
        -0.45278988271850895,
        -0.38172337327369676
      ],
      [
        -1.3955441227939072,
        -0.8094598543147308,
        -0.2641973173352317,
        0.30303059158778023,
        -1.4816959960985858,
        0.4159876117898399,
        -0.5440702290571316,
        1.0783491359749064,
        1.1976627825515624,
        -1.901404614899428,
        0.31642609605990235,
        1.1498325710981245,
        1.1435037279755793,
        -0.9685388755094887,
        1.290398797616681,
        -0.7294343484945807,
        0.18561647779293666,
        1.2374522698081893,
        1.4305481283152066,
        1.0013325318606898,
        1.5179769852634417,
        -0.3692099787279713,
        -0.8555861452514143,
        -0.8951493300597333,
        -0.002718293996598161,
        0.8576814430005323,
        -0.960629507957717,
        1.2189938885417824,
        -1.2458853092524713,
        1.0059237001895782,
        0.3844900721833227,
        0.8348305392183053,
        -0.847451237693259,
        0.03146189858404813,
        0.787211328297624,
        -0.5423651622846558,
        -0.7316417176154165,
        -0.4202108235104315,
        0.027485291707356568,
        1.2994546680017005,
        -0.45175896440652524,
        -0.9202187599693593
      ],
      [
        -0.6144070169701501,
        0.9514990266815322,
        -0.19389521376437308,
        1.2505823534921903,
        -1.6972765571809483,
        -0.7939685943414045,
        -0.7104761207227613,
        0.8967045009438891,
        1.0921079879039228,
        1.5994592350802794,
        -0.5911114456803603,
        -0.2985801903881713,
        -1.354114613979472,
        1.1825038962524694,
        1.3043001067395945,
        -0.550800447613422,
        -1.2361141702649003,
        1.4826519318919298,
        -0.8001210473210066,
        0.4479437884729592,
        1.5553022261320488,
        -1.3236914722065745,
        1.7918935437535273,
        -1.427352409854678,
        -0.5339725605171719,
        0.6108120759401493,
        0.35621725305473,
        -0.5083784900730329,
        0.1358865593128531,
        0.8136235827005226,
        0.39822479293758456,
        1.0542955872148945,
        1.9998699020991484,
        0.06683748075599252,
        -1.4779216932122217,
        1.5324452033620397,
        0.553121999348164,
        0.20808302620952956,
        0.4828097164877963,
        -0.37889597815717235,
        -0.701245373354344,
        1.9169541558680039
      ],
      [
        -0.7210694379303876,
        0.9446050976831238,
        -0.8832162892917381,
        0.11312316562058747,
        0.6050766589346023,
        0.9155291374400165,
        -1.5759268342074788,
        1.1543973930342186,
        0.91587782327275,
        -0.7978397151305486,
        1.286296984830828,
        -1.2481396569046654,
        -0.3954568845512357,
        1.2363715892664036,
        -0.24955494540675138,
        -0.337016295763986,
        1.9239930559599858,
        -0.41582997285671874,
        -1.5409441425860988,
        0.3912698975276713,
        -0.5064723432561679,
        -1.2551480485503324,
        0.26741175961352187,
        0.5385482978176305,
        0.49485056023372986,
        0.4647487113930017,
        -0.9136666154488847,
        0.7740757156593872,
        0.1027477284392462,
        0.8617722999149068,
        0.301767099178115,
        1.5180980564089384,
        -0.07195486597416234,
        -0.16143249022416858,
        -0.6311526999793756,
        -1.3083484160710779,
        1.329300990279103,
        -1.390947038652809,
        -1.2466250729500596,
        -0.2516228910903704,
        0.7105833185771356,
        -0.000722958568974339
      ],
      [
        0.25846165787234726,
        -0.9306169956659873,
        -0.6804543198870852,
        -0.11329298557977051,
        -0.769064762896658,
        1.605501250532812,
        -0.02434068195480327,
        -0.13284944021878964,
        -0.7843412518237114,
        2.1188543753677123,
        0.22152475170595287,
        1.2694715442969156,
        0.377692025732634,
        -0.3468108858630083,
        1.4534751587955752,
        -0.760994159370696,
        0.5010468444295709,
        1.1131710808614481,
        -1.0669371067867697,
        0.6500130839079015,
        1.3972023990960076,
        -1.1891771694492124,
        -0.17795448401217714,
        -0.9472220258200212,
        0.43857286930880984,
        -0.7410733284103366,
        0.8796826857295503,
        0.32927564867569553,
        0.36438918906096424,
        -0.5384025410387705,
        -0.18468890590532644,
        0.07645262221084083,
        1.0473791062331541,
        1.2666970896402767,
        -1.8175120503156097,
        -0.973525427546101,
        -1.3622527434650717,
        0.1762918237493125,
        0.6992661546400568,
        -0.7837733724272151,
        -1.308418241476861,
        1.1385909475723084
      ],
      [
        1.115115462935971,
        -1.2407803106303816,
        0.701736018251066,
        0.9585096113696617,
        -1.261137330279405,
        -0.6249352564526279,
        -0.8727237628458858,
        0.8505613181600065,
        -0.3631479687264573,
        2.1483670418973575,
        0.0449567378384921,
        -0.28698565920059044,
        -0.2813548621356731,
        0.03558809637266487,
        1.2711364272418946,
        0.7354528169886789,
        1.1675193668580022,
        0.37092307626540333,
        -1.1689455189447846,
        -1.591022792308166,
        -0.42575063080889225,
        -0.001834922571201279,
        1.0918692073092406,
        -1.2982233175340359,
        1.2700154505929382,
        1.2566358124768646,
        -0.4085104783437776,
        0.40311459380258696,
        0.6266581275077227,
        -0.5500938821440092,
        -1.0772302594146854,
        -0.4428424906970206,
        -0.9827359926384555,
        -0.4146740864403545,
        -0.5249682426922258,
        0.6653059801992204,
        0.037353058665161025,
        0.037196987522257655,
        -0.8842821806885051,
        -0.553318363296748,
        0.08228775094621166,
        1.5647099241215179
      ],
      [
        0.15591634782339348,
        0.2477484344017102,
        1.2503507921111516,
        1.5535645695861362,
        -1.2110220020205191,
        1.0457051858539856,
        -0.8025868735528522,
        1.9050566374387286,
        -2.027151136139465,
        0.6134691286799961,
        -0.3826333156858949,
        -2.052285052266234,
        -1.255453406956194,
        -1.7333570177422402,
        -0.7225125405488556,
        -1.7388196046993007,
        1.7118509265805748,
        -0.6362913672449665,
        -1.2979742581884999,
        -1.1659158879041847,
        -0.25005855760206896,
        -1.3155830832294486,
        -0.3137891061976161,
        0.8769834374162963,
        0.3533176669460584,
        -0.40375550211761185,
        1.5408035707213041,
        -0.6908544606043766,
        0.5200846649870922,
        -0.12789827089177142,
        0.9708401297849255,
        -0.26878505006194636,
        -0.5821166589223706,
        1.5123908673328095,
        -0.9638493017594778,
        -2.0799364972982177,
        1.2572838505984614,
        -0.5708186937587707,
        0.7631869135057261,
        -1.1367649345531778,
        -0.1352344314833577,
        -0.7625396378940424
      ],
      [
        -1.297793099872878,
        0.8395084834040855,
        -1.5471136984969114,
        -0.96874163399362,
        -1.0848931985000372,
        -1.2125172336964003,
        -0.5833407491787154,
        0.24588858225359425,
        0.7997157017854399,
        0.3036423164319778,
        0.35520893045337476,
        -0.7098236721624231,
        -0.9614416720313895,
        -0.440122153885265,
        -0.730069155200377,
        1.262851955796281,
        -0.010487433654991725,
        -1.263176726718033,
        0.6637994004600045,
        -0.5595409940834732,
        -0.3730577657447703,
        0.7989481144139665,
        -0.638273469714593,
        -1.2335311306480417,
        0.5786655678422055,
        -1.4766790291375722,
        -0.9176369836935353,
        -1.1408453122783009,
        0.5162563160070943,
        0.7218674372252546,
        -0.725456000276362,
        -0.7832735003124671,
        -0.5288479330152946,
        -0.7271661964814118,
        -1.2318337668020198,
        -1.2877108300270919,
        -0.6598458272757026,
        -0.9995040512863613,
        0.37721291347286656,
        1.09894277767043,
        -1.4771386280411753,
        0.19646584647376836
      ],
      [
        -1.0850597407545934,
        -0.14533825592495228,
        -1.24076420807937,
        0.3566908718147384,
        0.3430276581523822,
        0.8883030312019428,
        1.0046856120429366,
        -0.8461737468494428,
        -0.21335689581051084,
        -1.547466572341265,
        -0.8842126010818182,
        -0.6795854255919763,
        -0.743759338250512,
        -1.4326930125650001,
        -0.6544229915732179,
        0.9920047298631988,
        1.9614738098362077,
        -1.4966425413423246,
        -1.087152636551558,
        -0.8666091566089505,
        1.310282779804282,
        -0.9869970166012378,
        1.0223249661758298,
        -0.32874110739595586,
        1.4130771677924148,
        -0.8943596589020971,
        -1.7333570137941408,
        -0.601018877379456,
        -0.6659439042057608,
        -1.3187726870330199,
        0.6086392308520102,
        -0.621027945506847,
        1.1788135087373197,
        -1.0210471418368483,
        -1.4264122599132092,
        -1.0466875161976859,
        1.216374999768946,
        -0.9432447145577945,
        -1.6411131372531638,
        -0.3148810511806251,
        -0.31498341781114586,
        -0.7259609796008804
      ],
      [
        0.3378425486273849,
        -1.0673126730017388,
        0.2596429814441472,
        -0.23632574737073722,
        -0.13322505680299682,
        0.23667369244085698,
        -0.6473321924834522,
        1.3106484964683731,
        0.02996927476883754,
        1.4325626995565226,
        0.20250755475872334,
        -0.8597560403137318,
        -1.0145034334540366,
        1.1051768481435609,
        -0.5022955179180718,
        -0.23306910745663517,
        0.47048988767296074,
        -0.48257926882800894,
        0.570929413926274,
        -0.3606993385225802,
        -0.8495768379966758,
        -0.9189377455027725,
        -0.9564416168846579,
        0.16919086364942892,
        -0.1449313314702445,
        -1.2179303418126324,
        -1.3846305563712789,
        -0.2143761262881545,
        -0.3672344934878111,
        0.0003350052677422459,
        0.2528539462303603,
        0.8007730677669718,
        -1.340533473957835,
        0.036165493004685856,
        -1.222472620142226,
        0.9869351661357174,
        -0.4028435333648027,
        0.0580690720960518,
        -0.210810859292631,
        -1.2290193069542201,
        -1.1275694366552313,
        -0.43794775571224936
      ],
      [
        1.1704379852443674,
        1.204677725133025,
        0.3777226725992557,
        1.269430630397221,
        -0.5196269486760419,
        1.04265439409296,
        0.575938626730101,
        1.1344143572648637,
        0.7517161835866294,
        1.1361208646404473,
        1.3836432432258101,
        1.16913366652034,
        -0.9948297666796667,
        -1.0716163608668983,
        0.9747064933509475,
        -1.3077978942602093,
        0.7636880086981691,
        0.740192576599027,
        1.3878376622125033,
        -0.607213913497268,
        1.0654329560837181,
        1.1586592271801188,
        -1.2171592662204078,
        0.9851452532935746,
        -1.2762560521231525,
        -0.1846407966280307,
        0.7659723896727603,
        0.3190183406895162,
        -0.0630722326501181,
        -0.5487620072364238,
        0.46504288890040646,
        0.4772983550766714,
        0.16652456414554428,
        -1.4997406084976364,
        -0.48977609105297304,
        0.03786945028120856,
        -0.6575264386500569,
        0.25193991519278247,
        -0.1373731224384796,
        -1.0071233376245783,
        1.3940151131119416,
        -0.7952212653555844
      ],
      [
        -0.8578667850359751,
        0.35848628529105103,
        -1.5889292062954237,
        -0.12795213138454495,
        0.8861155064567047,
        0.691064116904902,
        -0.21746067333013455,
        -1.4236943485030025,
        -1.1728874250886594,
        0.8147855063950843,
        0.6650859702996451,
        -0.05934161438504421,
        0.23665624593098544,
        1.373105980547765,
        0.48085065921145814,
        -0.3138377862415343,
        -0.8518806731869101,
        -0.7696710210241874,
        -0.7770133381416892,
        -0.21896507071494056,
        1.3569274930497348,
        -1.387622415371048,
        -1.3302436932797048,
        1.385035302152724,
        0.8309076418373925,
        0.2174206537794736,
        1.2649921210902701,
        -1.0212829645272758,
        1.0068510532496129,
        -1.0876862057431131,
        -0.6958682403265322,
        -0.8796510245003324,
        -0.19681502997679282,
        0.11606889815184669,
        -1.4331914845973324,
        0.4988981044943874,
        1.4131424817610485,
        0.2919933425259202,
        0.8400413053034327,
        0.6071019004249555,
        -0.8848583228902384,
        1.1190271655832844
      ],
      [
        -0.22376521810092503,
        0.18427632700651905,
        -0.6444672393628557,
        1.3272422528052408,
        1.3760377599500666,
        0.4756729238666708,
        -1.002943427736615,
        -0.41453354115022567,
        -1.3512275583190403,
        1.216074068904106,
        0.9902416183112026,
        -0.1562539385853256,
        -1.160321831973459,
        -0.7687639059837006,
        1.0184854884448087,
        0.4175600337866278,
        -0.7881737827924609,
        0.5344736281177905,
        0.8038485042794001,
        0.30579919780709264,
        -1.156605826832067,
        0.4472851052048731,
        0.01377821653896018,
        0.2919566245225069,
        -0.8197288069926874,
        1.105180662848541,
        -1.350983344503117,
        0.5848405417275665,
        -0.4355973224650081,
        -1.04735322001443,
        -0.125155395408889,
        -0.8664496196162592,
        0.7686552716198024,
        -0.7731536865447217,
        0.33627185171430946,
        -1.4986426186374477,
        -0.3749196502518365,
        -0.03718064659178003,
        -0.8431619644571657,
        1.1889494920406147,
        0.831651300145733,
        -0.6592280056462057
      ],
      [
        1.798992973286088,
        -0.5691749936407156,
        1.0897378769679702,
        -0.3706343264060583,
        1.4590759894722813,
        -0.3548491343988613,
        0.011321715549119048,
        -0.35008332437540773,
        0.27371997739841714,
        -0.6489421639269823,
        0.05971444675252557,
        1.6729691289409427,
        -0.06917874316802157,
        -0.46240784735693957,
        -1.6821248985997788,
        -1.12396146410293,
        -0.523131017183871,
        0.6177940155448165,
        -0.2625858368465486,
        1.4368359869940743,
        -0.28820856015224616,
        -1.2401700126819997,
        -0.5625286327934467,
        1.3733731499844561,
        0.2515870534840965,
        -0.091657511032545,
        1.0538260369663668,
        1.1143556381438733,
        -1.0191989272459698,
        -1.1475880966440184,
        -1.1253550244155062,
        -0.9980028612412353,
        0.33990393869212937,
        0.3147742085161381,
        -0.6744246779357359,
        1.2923190076599353,
        -0.20070719134156406,
        -0.9181296957142099,
        -0.31688352271833253,
        -0.017143289759132194,
        0.45669880065262264,
        -0.5404096972074327
      ],
      [
        -0.7792693038167832,
        0.018947909530742924,
        0.6302709206823365,
        1.2193983310136751,
        -0.8184266364722137,
        0.49716212769344004,
        -0.35708269631437606,
        1.667024734916558,
        0.7319409416154145,
        0.7329513115050303,
        -0.7130263830781679,
        -0.26065281228571247,
        0.7991710822365271,
        -1.0376758344220054,
        -0.72350565941006,
        0.04588874476373967,
        -0.9577594034680871,
        1.4135545437263795,
        -1.2161904761347169,
        0.28734841699699065,
        1.177113726127455,
        -1.6309407800250721,
        -0.9121764733287062,
        0.5390119053903014,
        -0.5773959268475616,
        0.24826107108834702,
        1.5364996074881354,
        0.11752034175592153,
        -1.0818038338892357,
        -1.6872835120368959,
        0.1304873548895053,
        -0.9656701258076593,
        -0.4419674245610647,
        0.11374355912433466,
        1.0593302788106613,
        1.3367719573376275,
        -0.5520312623501503,
        0.9036133839505308,
        0.7529654649919926,
        -0.2287843727793156,
        1.263499403839825,
        -0.5135464234243392
      ],
      [
        0.04200345435248031,
        -0.6687339925453449,
        0.2967705730759462,
        -1.7176062079768735,
        -0.43087546695116313,
        1.0895896594833303,
        1.400072814703661,
        1.4034905966871967,
        1.0959570226269475,
        0.24067501437315894,
        -0.5899039194719458,
        -0.7308095897624951,
        -0.6582741391115707,
        -0.9297332144389581,
        0.1983395898808376,
        0.7744923632902633,
        -0.5207391679497029,
        -0.7785573381596017,
        -0.4498543002810727,
        1.8913131642167327,
        1.0364909166477991,
        -1.3260586944883543,
        0.5718047925140444,
        -0.011649243863542044,
        0.446360953608566,
        0.13892675176225733,
        0.0021546777115605954,
        1.6919522431293594,
        0.5002166317533292,
        0.07105118979290828,
        0.045329190250928596,
        -1.4964020247017238,
        -1.1552603646816269,
        -1.2767078053028564,
        0.8187423233358818,
        2.0927548153630267,
        -1.538505762529191,
        0.30954219770629104,
        -1.3860799539305082,
        1.38968800298957,
        0.8754860170300984,
        -0.3043414066097108
      ],
      [
        0.8615983951738512,
        -0.6376868654752036,
        -1.1255753207104102,
        0.749155719801047,
        1.1093858480109902,
        0.8240533385573767,
        0.0965013090216072,
        0.09612502063632444,
        -0.7066261999022349,
        1.0627776064206005,
        -0.9544329582651502,
        0.6343507499050814,
        1.0131525214605666,
        -0.21669156285884308,
        -0.46030993087264827,
        -0.02199946518300564,
        0.2377129319219074,
        -0.8924183877617617,
        -0.3273321561722161,
        0.19812092217131214,
        -0.8886095657409068,
        -0.7959880016149155,
        -0.9565439140574652,
        0.4459098637339368,
        -0.41485360777132246,
        -1.4462178322325752,
        0.8374711764855653,
        -0.20422919623695432,
        -0.6032723269949217,
        1.2797918545110762,
        -0.42922717282489753,
        -0.13363685702137745,
        -0.7012452990721882,
        -1.4193856581675832,
        -0.688838345995379,
        -0.9315184582837387,
        -1.175851068493214,
        0.5033092234017896,
        -0.4345880782802335,
        0.30239073440604697,
        -1.230534235577765,
        -0.7350755609789472
      ],
      [
        -1.3327526400418381,
        0.20399678740808647,
        1.1851928342747267,
        -0.6701779911825155,
        -0.8046624355246399,
        0.13751213434824208,
        1.1927806002243462,
        0.5555695533569979,
        -1.021134491163962,
        0.34590876012538685,
        -1.0400548361990112,
        -0.9318143940458605,
        -0.8935012021551911,
        -1.2224135568317736,
        -1.0519415562049332,
        -0.605643107756044,
        -1.2815984811212329,
        -1.0708423966654248,
        -1.3791801780384632,
        0.8281914840078807,
        0.6799041938503049,
        0.683237925930134,
        1.2886727703440355,
        -0.5891733947711962,
        1.1361626192536391,
        1.4613381694831402,
        -0.5422761176215826,
        1.3255389086570144,
        -0.4107533930316076,
        -1.113532645693988,
        1.3088757381986202,
        1.4097017865995183,
        -1.1177602802417008,
        1.4753565053514681,
        -0.8626318605238589,
        1.0603461394464797,
        -1.112922273282391,
        -1.4152618553444125,
        -0.5128524601827305,
        -0.48726836313134186,
        -0.9763511857469971,
        0.5880246621267009
      ],
      [
        0.697217737046857,
        -1.2133750239438825,
        -1.5168574051535044,
        1.061587997943067,
        -0.2572628894603869,
        0.6846139671976202,
        1.2648725682669024,
        0.922247697794293,
        -1.2617409242985655,
        -0.8553695592548506,
        -1.2889793370152094,
        -0.5551192139025632,
        -0.8287379159628024,
        0.6875445268426832,
        0.7361663538429024,
        -0.8294379729194097,
        -1.465756085122111,
        0.6215862696121949,
        -1.1704468316858876,
        -1.3563367913380726,
        0.9043664219860769,
        0.6488216356138673,
        -0.7120324823650854,
        -0.7821884902562267,
        -1.322926947755229,
        0.7564525862650199,
        -1.0053012882434913,
        -1.2041293224915022,
        -0.23377149062704683,
        0.6597071441923976,
        -0.2909557902244928,
        -0.523032125785294,
        -0.9137806214970303,
        -1.0275431708817369,
        1.067898304371555,
        1.3103517087301053,
        -1.0051141369514274,
        0.04301348546926378,
        0.7377476515703271,
        1.4802318589950727,
        -1.3426189105648252,
        1.392868565401996
      ],
      [
        0.27626037092719313,
        -0.7564480689274307,
        -1.0530813493604885,
        -0.2485704109206475,
        1.086154637859774,
        0.7898474085372512,
        0.13391023721695197,
        1.3808763722764454,
        -1.3982415460058757,
        -0.9065669156717253,
        0.42512099030566736,
        1.254059661329649,
        -1.0336650832431438,
        0.9851465377229615,
        -1.225030735692884,
        0.00048042099428159766,
        -0.45152201537597564,
        1.019415338783399,
        -1.126415396050452,
        0.762768461738311,
        -1.0881422054026997,
        -0.8065023364995313,
        0.02166970813810405,
        -1.325831169899993,
        -1.2500456759100624,
        -0.7679740298767852,
        -0.3896543996901224,
        -0.4027336208394335,
        0.40921253287869463,
        0.1104183239318202,
        -1.365202051365048,
        1.2742115190924992,
        -1.1272167422889274,
        -0.32795228510778246,
        0.36798539431948285,
        1.475221005703209,
        0.1069293813290041,
        -0.09688500041548541,
        0.9127636572624389,
        0.9661926588032415,
        -1.3635550494539026,
        -0.625149678033283
      ],
      [
        -1.1847412447033476,
        -0.6815085132573112,
        -1.1192970034339202,
        -1.1489825166784136,
        -0.66288410685209,
        -1.207490256363862,
        -0.5640868840395367,
        -0.17582890451150957,
        -0.07479913735112545,
        0.11981870377332915,
        1.0223563307668042,
        1.2448308781444677,
        0.7101827417009315,
        -1.4812290065191454,
        0.2944312213584791,
        -1.0802378417228702,
        1.1037638179639342,
        -1.298468105110557,
        -0.9838960174632484,
        0.42308525535760994,
        -0.052073657343983865,
        -1.0448430390977412,
        -1.383342726882978,
        -0.6313428032398335,
        0.8712723851399741,
        -0.9346584059398961,
        -0.8511960834847552,
        -1.310560185658456,
        -0.1389992357753354,
        0.7137007147581652,
        0.0672506564571873,
        -1.5421824764460166,
        -0.15656945257787974,
        0.273488474775346,
        -0.5915396974502741,
        1.0617029005541956,
        -0.6884346450986104,
        0.27349815093921126,
        -0.5838065963793461,
        -0.4778135284809283,
        0.36781070801581767,
        -1.3062085539673687
      ],
      [
        1.4112120769322885,
        -0.8552887551088735,
        1.482952027685751,
        1.21063259992424,
        -0.2104758127509148,
        0.9947949723152332,
        0.8651854698578277,
        -0.36331937822301774,
        -0.10661855713811431,
        -0.327669771720467,
        -0.5738999952696492,
        -1.1576120123885423,
        1.166513303609212,
        -0.5986998395766664,
        0.31629762107037496,
        1.1502334310981317,
        -0.283653066164805,
        -0.9035328501799474,
        0.7955127386966429,
        -0.6721118738296307,
        0.49489170296013946,
        0.9885758159716919,
        0.8814813712595538,
        0.05530241407938017,
        -1.1586125181062992,
        0.009093671815959414,
        1.0360964554482412,
        -0.3363681621917117,
        -0.6595592778657919,
        -0.9107781191707212,
        0.38493101112835343,
        -1.4403072221287994,
        0.07500136363758282,
        0.7452355372093116,
        -0.2979446090002549,
        0.10529129686338537,
        -0.19717770605843626,
        0.524305616369128,
        -0.3946610870429708,
        1.426466479167917,
        0.9758267430114335,
        0.09627433881061823
      ],
      [
        0.9062545626900929,
        0.3535339751127004,
        1.3170709089280368,
        0.8995351621235359,
        -0.5976977418115842,
        0.05730717718021025,
        0.2143812238524262,
        -0.29265405724295385,
        -0.10787076932232546,
        0.32501302549337646,
        0.7115453069733941,
        0.6051650233565989,
        -0.5150126354085859,
        0.8387074497266381,
        0.9554283429556464,
        1.3417254046948357,
        0.6150498486441075,
        0.6012027687200935,
        0.23878188895007219,
        0.729630343428899,
        0.34792710953100914,
        0.014282973188075532,
        0.12162056530484676,
        -0.14769254707384616,
        1.5020434782451006,
        0.5362138588365353,
        -1.1685829217990262,
        -1.2452586757629067,
        1.242681662415248,
        -0.48776132652350557,
        0.4991091049797487,
        0.4107701148064848,
        1.2715878862077354,
        1.2952468313791683,
        1.2097222348933518,
        0.1267829630891135,
        0.3748180475874084,
        -1.3243157203953246,
        -1.3550910825054665,
        0.25844454672978334,
        -0.31735681732613363,
        -0.5762399682243717
      ],
      [
        -0.8628245847655989,
        1.3314205115238125,
        1.1212844328191065,
        0.3802530709758837,
        0.29474927897094366,
        -1.1941037456787111,
        1.4631127662611751,
        0.11488456907871336,
        -0.40864105603250706,
        1.4200502103297248,
        -1.4116443130140772,
        0.5169877577522018,
        -0.12155148252226326,
        0.04214062377578878,
        -0.9748335190631954,
        1.035221004864122,
        0.6068002142242848,
        -0.7887795641816057,
        -0.7927702516000628,
        -0.5322616361908463,
        -0.22746066483270178,
        -0.4872348324809384,
        0.6990001332236063,
        -0.724142756067902,
        -1.4651106423642628,
        -1.4541994389173452,
        0.1255588348484899,
        0.585318556174298,
        -0.21023861707316932,
        -0.5127689637679043,
        0.7642160897609467,
        1.371927524877379,
        -1.2418715079500857,
        -0.8081428235478342,
        -0.26800926661567,
        -1.5412769676405835,
        1.1935091355961778,
        0.1243432351809142,
        -1.270112729787108,
        0.8627820222729506,
        -0.06026316651651335,
        1.2606342768416083
      ],
      [
        -0.40850877887606335,
        -0.30965638974939574,
        -0.5432102898896007,
        0.6884696896884344,
        -1.1010396962163727,
        -0.08714113052526183,
        -1.3740974669514974,
        -0.2840947475386322,
        -0.7948231895688966,
        1.2218328246861467,
        -0.7085023941691003,
        -1.453191953748121,
        1.0196365873529212,
        0.7562418357704515,
        -0.18311258291194168,
        0.9241197475168109,
        -0.822988937580209,
        0.013241920928881764,
        -1.1968115982750795,
        1.0893090098135756,
        1.301066797333601,
        -0.8339071297866515,
        -1.0848991097022676,
        0.9351240611720179,
        -0.5546725439062203,
        0.9222318683293504,
        0.3543470257472812,
        1.1487036049278687,
        0.026864603232966737,
        -1.2672070076426127,
        -0.09089221879023253,
        -0.7928954708458537,
        1.1942962541439246,
        -1.4030713402860109,
        -0.2607920927474999,
        0.08626082163175536,
        -0.3951130526186848,
        -1.1027681346553821,
        -1.4770519872140706,
        -1.4844327038181981,
        -1.1563920058403834,
        1.1433898092816348
      ],
      [
        -1.1703704914587683,
        0.594322574198981,
        0.5343646598507914,
        -0.90283303039595,
        1.4802902462306136,
        -1.342986218568454,
        0.8324244151269661,
        -0.949105013546694,
        -1.1034489169012287,
        -0.25415211711143304,
        -1.3817902401447504,
        1.0969063468928346,
        -1.3662549289027297,
        -0.8487670320974201,
        0.09248697251877583,
        0.8787918330092958,
        -0.6909115653976469,
        1.3439541994023037,
        -1.1617703963461168,
        0.7821499395153567,
        -0.14533802674733934,
        -0.13240544407753385,
        -1.425464012863527,
        -0.030724523776135604,
        0.8844414786693017,
        0.3401395384775373,
        -0.300979465271466,
        0.15793084575033625,
        -0.5881302382215388,
        -0.2690450639343218,
        0.28427963271665885,
        1.219224359029109,
        -0.9158596740965393,
        -1.121987564670352,
        -0.8780616603915959,
        -1.4076100730081638,
        -0.18170063154335167,
        -1.3253633057312924,
        1.010511293620213,
        -1.2840802136361213,
        0.08637013138453552,
        0.5994765146305825
      ],
      [
        -0.43194439652473937,
        -1.3978377559485806,
        -1.0656214732603637,
        -0.1441148428334928,
        0.7419780180858251,
        -0.5569788853664301,
        0.9736162079829785,
        -1.0370386258322104,
        1.317723790758898,
        -0.5408794658369197,
        0.6578080324143325,
        -0.3295808066483901,
        -0.5887729505765114,
        1.2645798504447459,
        1.30104171564173,
        1.2677875250841424,
        0.40574374499813076,
        0.9868747087257491,
        -0.30517180166596336,
        -1.1035541029752216,
        1.0888148266965567,
        -1.627719255784537,
        -0.5517778452683058,
        -0.10579134997824184,
        1.1501811509418587,
        0.3524727028864318,
        -0.6059859248023324,
        -1.0242581175798813,
        -0.47057410175891257,
        -0.571690067138224,
        0.7155055242975312,
        -0.9300827756885378,
        -1.1110963414494828,
        1.1432459216923392,
        0.02319608135667053,
        0.6934853658530458,
        -1.7232546603609864,
        -0.8178989012936978,
        -1.051893681750556,
        -1.144714576285548,
        -0.2501494651911838,
        0.43529839034324974
      ],
      [
        -0.9148123535649171,
        0.43977294812227263,
        -1.196740597447831,
        0.21977340703212014,
        1.4107446433797775,
        -0.7915251003522055,
        -1.0580060122774417,
        1.3541426105386682,
        -0.20189099747590894,
        -0.18205483173007703,
        0.5822035106820731,
        -0.7237234025797074,
        -1.0003786865209296,
        0.46458463714441534,
        -0.48297517045567456,
        0.4863325076670348,
        0.19034090265021283,
        1.2968837002766076,
        -1.4357506613849087,
        0.3090960355620962,
        -1.0408110818283653,
        -1.1305940059945505,
        -0.21599500166841795,
        0.39289190734256785,
        -0.3890453904224569,
        0.20494160138338563,
        -0.6069359953985236,
        -0.16592532579093197,
        -0.44078666110695486,
        1.0045200874870073,
        -1.3634479667533683,
        -1.085515617998913,
        -0.2765704441348646,
        0.41178892800797723,
        1.4726295258180275,
        1.3521989056521047,
        -0.3678799598895235,
        1.0392766674159557,
        -0.028568751719073884,
        -0.296515495307468,
        -0.6358480530401931,
        0.02425962031599226
      ],
      [
        0.8908040619575409,
        0.9268285170415914,
        -0.10469750490038,
        0.5010676160755644,
        -0.7555913196248474,
        -0.6472232643255951,
        -0.06297981186636523,
        -1.362987279198576,
        1.040383244545798,
        0.13976107979506164,
        -0.42018717932769883,
        1.4067274960934668,
        -1.0454936974276572,
        -1.0675146741840014,
        -0.7491882067771061,
        -1.4245433164569001,
        1.099413242205108,
        -1.372072262260707,
        -0.7334789534654969,
        1.49498860759062,
        0.619102406325698,
        -0.07703124908828643,
        0.8390139577213426,
        0.9211020568054111,
        -1.0739070215853592,
        0.9605355616046782,
        -1.5082288231349854,
        -0.8888640924507174,
        -0.42072163149892533,
        0.5861162643447791,
        0.0017221310656120184,
        -0.9757595731312566,
        -0.4095397329047612,
        -0.2218095716211506,
        -1.4648938347471392,
        0.9087272384476314,
        -0.2836671749893401,
        0.3167064625870308,
        -1.1320295703908538,
        -1.1399827253653279,
        0.417925076464385,
        -0.2197377212396892
      ],
      [
        -1.7498621474337335,
        0.4959150690017007,
        1.1967756752923422,
        -1.4587704833273798,
        1.1735343284648396,
        -1.526283317924297,
        0.03452742094123354,
        -0.812039442034166,
        1.2748521953697731,
        -0.31632042663175536,
        0.5070118241562759,
        -0.23827642965331813,
        1.1951375254965702,
        1.5616073866586302,
        -0.6569801935763353,
        1.270111225681359,
        0.7324615666935483,
        -0.7504840546124683,
        -0.7521216545632678,
        -0.625539097599218,
        0.24883354639703356,
        -0.06928713400132097,
        -0.2303085707615461,
        -0.02191089374539569,
        1.0602545503499978,
        0.09555610104757982,
        -1.7269773568653528,
        -1.3052503561666355,
        -0.4108830222626377,
        1.6573288693175716,
        -0.2747838819491761,
        -0.9923662176761392,
        0.5258163901834084,
        -1.3133428722362503,
        0.6616488046979961,
        0.6019419528161257,
        -1.8551352651244097,
        -0.6867752809751743,
        -0.2315275824686229,
        -1.467176018034367,
        -0.5296782504830307,
        -0.2835343723046456
      ],
      [
        -1.7519250073370742,
        -0.04151815999543604,
        0.032292118705856125,
        -1.5094289354340602,
        -1.5976283869093328,
        0.12204208995952733,
        -0.3285993103940073,
        -1.6108049962598696,
        -0.9488517317369658,
        -0.8537443178346668,
        -0.5161740490721238,
        0.2131657766172518,
        0.4029113687201519,
        -0.9693215247974459,
        0.05660706416574748,
        -0.912897546104837,
        -0.5170329645298201,
        -0.9790301615456042,
        -1.7455181823127661,
        -0.5247354702167947,
        1.1777368836445865,
        1.234208231185267,
        0.4419499648874339,
        1.1447821162498537,
        1.4806089657391803,
        -0.009082807221956203,
        -0.08872102469314563,
        1.9364706879741993,
        0.5687373306389991,
        -1.1989373265284078,
        1.4292924558832925,
        -0.4521966208095234,
        0.30171192911354566,
        0.5281222250788042,
        0.8090327481820294,
        1.9541534458913081,
        0.9701517287338374,
        1.674043574582731,
        -0.35643508444235006,
        0.9505797372096255,
        0.09385035994668124,
        1.7532446673762065
      ],
      [
        -0.42464113195820546,
        1.2903340184149354,
        -1.6923831433526546,
        -0.9389887214748613,
        1.187060540019726,
        -0.390544301700811,
        0.1415815981862222,
        1.314349420207757,
        -1.2978212794642874,
        2.4482642417986784,
        -0.3595148133178649,
        0.5708946233013659,
        -0.05425984153793247,
        -0.550764059615183,
        0.02971248509135616,
        1.4392752281973669,
        -1.2881431440550306,
        -0.892352532451808,
        -0.05750989431686522,
        1.0090945679336567,
        1.3284039075291025,
        1.0300559338295907,
        1.600945343397116,
        -1.1394354191278004,
        -0.4142173826840498,
        -0.2006991001142975,
        -1.1231960990676106,
        0.6909917937987371,
        0.21162120788947084,
        -1.8923707069304352,
        1.3547359640082461,
        0.40702556400774614,
        0.6792905520146248,
        -0.06010303940926849,
        0.15226001336961806,
        1.6328133821351498,
        -1.3589653072823473,
        -0.6550739324286647,
        1.0717719050956742,
        1.342638291041089,
        0.031235722790903635,
        1.3265202570553067
      ],
      [
        0.18486449396405588,
        -0.686208815795772,
        1.2563059199954567,
        -0.49494847776793605,
        -0.36729806024853234,
        0.1427060553042702,
        0.7272840934322432,
        -0.8211623874020774,
        1.4358111238574085,
        0.6457951929453142,
        0.8542658299523057,
        -1.437698379532039,
        -0.4726788271106779,
        0.45465123151313064,
        -0.77076546767534,
        -1.4958357108703066,
        -1.4236197770040468,
        1.149860751787383,
        0.8468048676673485,
        0.03308474089008316,
        0.8783982824047424,
        -0.9469763773478005,
        -0.6148328856033614,
        0.807039220997719,
        -1.294660053084213,
        -0.19064473702081977,
        -1.4172505742191897,
        -0.4205066680951131,
        -1.0231681993754274,
        0.25715023618371835,
        0.11631422511032584,
        1.498575640632711,
        0.13000045624675824,
        -0.2646987394791001,
        0.3504749374350292,
        -1.59935652529392,
        0.2011962617209362,
        0.7854074673586434,
        -0.1755097021387521,
        0.5918643469261494,
        -0.23637469154153012,
        -1.6684763457800003
      ],
      [
        -0.48744182814091347,
        1.2942481967239963,
        -0.6306542799517051,
        0.5207757469530704,
        0.7347632012432589,
        1.1215146473160833,
        -0.7024940293942996,
        0.2326050767596323,
        -1.092524359054499,
        -1.3649699435316713,
        -0.11987525480330308,
        -0.6992348276054524,
        1.2781112314908336,
        -0.8502511334646172,
        -0.7386856644279011,
        1.0239112060608087,
        0.7766223863333038,
        -0.8582244040149068,
        0.2356861732671059,
        -0.7889050808826154,
        -0.501654559188001,
        0.28000525676524374,
        0.8523839007032755,
        -0.5103463560431228,
        -1.42477929519977,
        0.47342842941561236,
        -0.029808962244405424,
        -0.616754984707169,
        0.08249503021724743,
        -0.4858254732299807,
        1.005279132158215,
        1.1282519680264742,
        -1.4329623416980253,
        -1.0879230618943236,
        0.24578302125382626,
        -0.8426583424058873,
        0.21398161093080084,
        1.0445213358629863,
        -0.06673464918327005,
        -1.0059280582083712,
        0.40100444854648876,
        -1.7236225881082947
      ],
      [
        -1.5114733333065646,
        0.06991536399812201,
        1.2187793346242874,
        0.46165347031042814,
        0.43382513458070593,
        0.4955319921293088,
        -0.8781827524629842,
        0.9335365822903674,
        1.3559311258387647,
        0.1051724765944692,
        -1.4419467066637912,
        1.124846545297389,
        0.38166837396856057,
        0.37840549219589154,
        -1.387404996056545,
        -0.5171337778962483,
        -0.3457729178841689,
        -1.0512830102795945,
        -1.294426125460986,
        -0.1982242257446853,
        0.6762671116128988,
        -0.024282546907090564,
        -0.05493307972703418,
        -1.045255453449237,
        0.7484917634501399,
        0.06093999700571109,
        -1.466407107465726,
        0.7762543459984228,
        0.028464508564641597,
        1.2946962407988918,
        -0.8881585801252584,
        -0.5952008612248759,
        -0.1790446178887066,
        0.9816896441839581,
        -0.23553003752064441,
        -0.18788815869089331,
        -0.709780280268158,
        -0.05572446408892261,
        0.5690794290843506,
        -0.8547821091041716,
        -0.5079924155827793,
        -1.3911175873171868
      ],
      [
        -0.7996166993792306,
        1.1040154615654136,
        -2.6101400598720703,
        1.141519214858165,
        0.015237271031133984,
        2.444347143551534,
        -0.873222970406075,
        -0.02970739531175198,
        -0.10458871818149024,
        3.2891940781719957,
        -0.012157855115645138,
        -1.5133350584834047,
        1.5120796930819702,
        0.8342814076968669,
        0.5532418491748808,
        -0.4924835377391551,
        -0.30207754138650184,
        1.3605116011463343,
        -0.1781434344307348,
        -1.0983051967152389,
        -0.7529599796404105,
        0.333558813620636,
        -0.7453162670839684,
        -1.548121580354301,
        1.797714628429177,
        0.10263914755479821,
        0.09496351367718338,
        0.544180446463051,
        1.1701204982607023,
        -0.6533647652369351,
        -0.022079213836695165,
        -1.5685650430409432,
        1.218941241732049,
        -0.5523271924143249,
        -0.7849467998682343,
        1.1082986919757098,
        -0.4654455839324938,
        -1.6677285502247527,
        0.9659512354361127,
        1.453829068012489,
        -0.027997619436553888,
        1.4736099375022897
      ],
      [
        -1.2932599769356654,
        -1.1656008151501904,
        -0.9414397455362802,
        1.4629458608386665,
        -1.049413276649026,
        -0.9927964073471311,
        1.3586654412661734,
        0.5822224776230642,
        1.1306061734134452,
        1.5527482420662122,
        -0.3974561827919735,
        -0.7998126390545677,
        0.11401158323009337,
        -0.043335683742049665,
        -1.24012698937335,
        0.3732079063742878,
        1.322271233741624,
        1.5887984198247853,
        -0.17171960198127534,
        0.7937105627019764,
        -1.2002103442525367,
        0.5086924021603394,
        0.18416881279995465,
        -0.6829912501546093,
        2.1795775453867865,
        -0.4084053560405486,
        -0.08117846908811444,
        1.62294646614454,
        0.9357868917154617,
        0.5394764607255225,
        -0.11184259601982409,
        0.9492054064362128,
        -0.5978383021142908,
        0.5152953974750377,
        -1.278173010691289,
        1.0627504314784002,
        1.1712691215657876,
        -0.20662294301586223,
        -0.7964661403116271,
        -1.0017956641309296,
        0.10469086019080459,
        1.6244600030838734
      ],
      [
        0.8840731166920972,
        0.38267048317703156,
        0.8075081904063817,
        -1.0360612776015024,
        0.1636797786332063,
        0.33745462640117124,
        -0.9236319922694772,
        -0.8132221744148961,
        0.6259838868487716,
        -0.3591118369435219,
        -0.38190151459906296,
        0.42014185870300974,
        -0.5442690371350697,
        0.1529184182862077,
        0.07633252083704996,
        -0.8628477161970409,
        -0.00020548083054947389,
        0.6678571157343324,
        -0.05085193225381509,
        -1.0080838509615777,
        0.1916578951290423,
        -0.7152709276327952,
        -0.8248469474184995,
        0.17779870512469348,
        1.5468184261741609,
        -0.754266870506551,
        0.9181321892030276,
        -0.788697610359417,
        -0.6346529873417559,
        1.0033597223146749,
        0.5572698096157562,
        1.3169437696471085,
        -0.8153551192466945,
        1.0051973329306674,
        1.3732273788019498,
        1.4624287665279427,
        1.032062091866333,
        1.3222194262137967,
        -0.003644009502569998,
        0.7185240976880007,
        0.20867988395668277,
        -0.20051299916103812
      ],
      [
        0.193076887759652,
        1.1958829022352024,
        0.07704328829012602,
        -0.327076861150793,
        1.5280096713348912,
        0.9918960343236873,
        0.9914473765593239,
        2.035269640482741,
        0.002284584606108281,
        2.367599357291771,
        0.5696924862251667,
        -0.18572811127656705,
        1.1349396644888599,
        0.5235071005984667,
        0.6316118554195491,
        -0.2557008659698241,
        -0.44815904302161697,
        -0.9832012874290702,
        -0.9089759041287987,
        0.6542826787545064,
        -1.3335232651401776,
        -1.4816953356903944,
        -0.47830785128766584,
        -2.014991141030867,
        -0.56717788151835,
        -0.7633986895602886,
        1.3425845519248685,
        1.3278207102844066,
        -1.1905122909091548,
        0.8594779269686005,
        -0.045989679932361076,
        -0.91477715219317,
        -0.7731834990758751,
        0.34585220729323984,
        -0.29080060869601815,
        0.3677411864542474,
        1.1391168237122298,
        1.32262888654828,
        0.16066289410869053,
        1.3155364623102617,
        -1.2201607534349264,
        0.9914209952527127
      ],
      [
        -0.21595431127658607,
        0.6147225548703473,
        -1.2827070702377579,
        -0.5697792312746276,
        -0.18728455830365737,
        -0.033122059993219266,
        -0.9893877587309274,
        0.7258213464672004,
        1.5254127959899735,
        -1.1444541376057422,
        0.9347380139917241,
        -0.1555211117411051,
        -0.9865837932243294,
        -1.6576614188932701,
        1.0500728033570936,
        -1.5274989264167482,
        1.4034479915950597,
        0.7565563783362881,
        -1.1458026932803915,
        -1.7440244642285856,
        0.06120692651903859,
        0.19312991236922591,
        1.5466268347059873,
        -0.031135249904391846,
        0.006791493701351477,
        1.7299160807107745,
        0.5078234450858302,
        -1.3367656718666754,
        -1.0609426061894642,
        0.7821011148253705,
        -0.8891417435120507,
        1.637782054279434,
        -0.6048320939808808,
        1.3717312745239434,
        0.6107032443962463,
        -0.12920029910971673,
        -0.07678684757625623,
        0.8727306382130385,
        -0.04529632753867336,
        0.2830555163530543,
        0.055713458299168635,
        -1.5309280500017322
      ],
      [
